digraph Tree {
node [shape=box, style="filled", color="black"] ;
0 [label="blueTotalMinionsKilled <= 215.5\ngini = 0.5\nsamples = 4948\nvalue = [3984, 3919]\nclass = blueLose", fillcolor="#fffdfc"] ;
1 [label="blueTotalMinionsKilled <= 182.5\ngini = 0.48\nsamples = 2324\nvalue = [2255, 1464]\nclass = blueLose", fillcolor="#f6d3ba"] ;
0 -> 1 [labeldistance=2.5, labelangle=45, headlabel="True"] ;
2 [label="blueGoldDiff <= -801.5\ngini = 0.39\nsamples = 347\nvalue = [415, 152]\nclass = blueLose", fillcolor="#efaf82"] ;
1 -> 2 ;
3 [label="blueGoldDiff <= -2873.0\ngini = 0.3\nsamples = 267\nvalue = [366, 82]\nclass = blueLose", fillcolor="#eb9d65"] ;
2 -> 3 ;
4 [label="blueTotalJungleMinionsKilled <= 59.5\ngini = 0.15\nsamples = 146\nvalue = [223, 20]\nclass = blueLose", fillcolor="#e78c4b"] ;
3 -> 4 ;
5 [label="blueGoldDiff <= -4955.5\ngini = 0.08\nsamples = 134\nvalue = [216, 10]\nclass = blueLose", fillcolor="#e68742"] ;
4 -> 5 ;
6 [label="gini = 0.0\nsamples = 51\nvalue = [88, 0]\nclass = blueLose", fillcolor="#e58139"] ;
5 -> 6 ;
7 [label="blueGoldDiff <= -4939.0\ngini = 0.13\nsamples = 83\nvalue = [128, 10]\nclass = blueLose", fillcolor="#e78b48"] ;
5 -> 7 ;
8 [label="gini = 0.0\nsamples = 1\nvalue = [0, 2]\nclass = blueWin", fillcolor="#399de5"] ;
7 -> 8 ;
9 [label="redWardsDestroyed <= 0.5\ngini = 0.11\nsamples = 82\nvalue = [128, 8]\nclass = blueLose", fillcolor="#e78945"] ;
7 -> 9 ;
10 [label="redTotalMinionsKilled <= 240.0\ngini = 0.31\nsamples = 11\nvalue = [17, 4]\nclass = blueLose", fillcolor="#eb9f68"] ;
9 -> 10 ;
11 [label="blueGoldDiff <= -4288.0\ngini = 0.1\nsamples = 9\nvalue = [17, 1]\nclass = blueLose", fillcolor="#e78845"] ;
10 -> 11 ;
12 [label="redTotalMinionsKilled <= 227.5\ngini = 0.44\nsamples = 2\nvalue = [2, 1]\nclass = blueLose", fillcolor="#f2c09c"] ;
11 -> 12 ;
13 [label="gini = 0.0\nsamples = 1\nvalue = [0, 1]\nclass = blueWin", fillcolor="#399de5"] ;
12 -> 13 ;
14 [label="gini = 0.0\nsamples = 1\nvalue = [2, 0]\nclass = blueLose", fillcolor="#e58139"] ;
12 -> 14 ;
15 [label="gini = 0.0\nsamples = 7\nvalue = [15, 0]\nclass = blueLose", fillcolor="#e58139"] ;
11 -> 15 ;
16 [label="gini = 0.0\nsamples = 2\nvalue = [0, 3]\nclass = blueWin", fillcolor="#399de5"] ;
10 -> 16 ;
17 [label="blueWardsPlaced <= 52.5\ngini = 0.07\nsamples = 71\nvalue = [111, 4]\nclass = blueLose", fillcolor="#e68640"] ;
9 -> 17 ;
18 [label="redTotalJungleMinionsKilled <= 59.5\ngini = 0.04\nsamples = 67\nvalue = [106, 2]\nclass = blueLose", fillcolor="#e5833d"] ;
17 -> 18 ;
19 [label="gini = 0.0\nsamples = 48\nvalue = [83, 0]\nclass = blueLose", fillcolor="#e58139"] ;
18 -> 19 ;
20 [label="blueTotalJungleMinionsKilled <= 43.5\ngini = 0.15\nsamples = 19\nvalue = [23, 2]\nclass = blueLose", fillcolor="#e78c4a"] ;
18 -> 20 ;
21 [label="redWardsPlaced <= 26.0\ngini = 0.3\nsamples = 9\nvalue = [9, 2]\nclass = blueLose", fillcolor="#eb9d65"] ;
20 -> 21 ;
22 [label="blueTotalJungleMinionsKilled <= 42.5\ngini = 0.44\nsamples = 5\nvalue = [4, 2]\nclass = blueLose", fillcolor="#f2c09c"] ;
21 -> 22 ;
23 [label="blueWardsPlaced <= 11.5\ngini = 0.32\nsamples = 4\nvalue = [4, 1]\nclass = blueLose", fillcolor="#eca06a"] ;
22 -> 23 ;
24 [label="gini = 0.0\nsamples = 1\nvalue = [0, 1]\nclass = blueWin", fillcolor="#399de5"] ;
23 -> 24 ;
25 [label="gini = 0.0\nsamples = 3\nvalue = [4, 0]\nclass = blueLose", fillcolor="#e58139"] ;
23 -> 25 ;
26 [label="gini = 0.0\nsamples = 1\nvalue = [0, 1]\nclass = blueWin", fillcolor="#399de5"] ;
22 -> 26 ;
27 [label="gini = 0.0\nsamples = 4\nvalue = [5, 0]\nclass = blueLose", fillcolor="#e58139"] ;
21 -> 27 ;
28 [label="gini = 0.0\nsamples = 10\nvalue = [14, 0]\nclass = blueLose", fillcolor="#e58139"] ;
20 -> 28 ;
29 [label="blueGoldDiff <= -4495.5\ngini = 0.41\nsamples = 4\nvalue = [5, 2]\nclass = blueLose", fillcolor="#efb388"] ;
17 -> 29 ;
30 [label="gini = 0.0\nsamples = 1\nvalue = [0, 2]\nclass = blueWin", fillcolor="#399de5"] ;
29 -> 30 ;
31 [label="gini = 0.0\nsamples = 3\nvalue = [5, 0]\nclass = blueLose", fillcolor="#e58139"] ;
29 -> 31 ;
32 [label="redWardsPlaced <= 17.0\ngini = 0.48\nsamples = 12\nvalue = [7, 10]\nclass = blueWin", fillcolor="#c4e2f7"] ;
4 -> 32 ;
33 [label="blueGoldDiff <= -5897.0\ngini = 0.18\nsamples = 7\nvalue = [1, 9]\nclass = blueWin", fillcolor="#4fa8e8"] ;
32 -> 33 ;
34 [label="gini = 0.0\nsamples = 1\nvalue = [1, 0]\nclass = blueLose", fillcolor="#e58139"] ;
33 -> 34 ;
35 [label="gini = 0.0\nsamples = 6\nvalue = [0, 9]\nclass = blueWin", fillcolor="#399de5"] ;
33 -> 35 ;
36 [label="redTotalJungleMinionsKilled <= 54.0\ngini = 0.24\nsamples = 5\nvalue = [6, 1]\nclass = blueLose", fillcolor="#e9965a"] ;
32 -> 36 ;
37 [label="gini = 0.0\nsamples = 3\nvalue = [5, 0]\nclass = blueLose", fillcolor="#e58139"] ;
36 -> 37 ;
38 [label="blueTotalMinionsKilled <= 172.0\ngini = 0.5\nsamples = 2\nvalue = [1, 1]\nclass = blueLose", fillcolor="#ffffff"] ;
36 -> 38 ;
39 [label="gini = 0.0\nsamples = 1\nvalue = [0, 1]\nclass = blueWin", fillcolor="#399de5"] ;
38 -> 39 ;
40 [label="gini = 0.0\nsamples = 1\nvalue = [1, 0]\nclass = blueLose", fillcolor="#e58139"] ;
38 -> 40 ;
41 [label="redTotalMinionsKilled <= 251.5\ngini = 0.42\nsamples = 121\nvalue = [143, 62]\nclass = blueLose", fillcolor="#f0b88f"] ;
3 -> 41 ;
42 [label="redWardsPlaced <= 13.5\ngini = 0.4\nsamples = 117\nvalue = [142, 55]\nclass = blueLose", fillcolor="#efb286"] ;
41 -> 42 ;
43 [label="blueWardsPlaced <= 13.5\ngini = 0.49\nsamples = 18\nvalue = [15, 21]\nclass = blueWin", fillcolor="#c6e3f8"] ;
42 -> 43 ;
44 [label="gini = 0.0\nsamples = 3\nvalue = [6, 0]\nclass = blueLose", fillcolor="#e58139"] ;
43 -> 44 ;
45 [label="blueWardsPlaced <= 14.5\ngini = 0.42\nsamples = 15\nvalue = [9, 21]\nclass = blueWin", fillcolor="#8ec7f0"] ;
43 -> 45 ;
46 [label="gini = 0.0\nsamples = 4\nvalue = [0, 10]\nclass = blueWin", fillcolor="#399de5"] ;
45 -> 46 ;
47 [label="blueWardsPlaced <= 36.0\ngini = 0.5\nsamples = 11\nvalue = [9, 11]\nclass = blueWin", fillcolor="#dbedfa"] ;
45 -> 47 ;
48 [label="blueTotalJungleMinionsKilled <= 50.5\ngini = 0.5\nsamples = 9\nvalue = [9, 8]\nclass = blueLose", fillcolor="#fcf1e9"] ;
47 -> 48 ;
49 [label="blueTotalMinionsKilled <= 174.0\ngini = 0.4\nsamples = 6\nvalue = [3, 8]\nclass = blueWin", fillcolor="#83c2ef"] ;
48 -> 49 ;
50 [label="redWardsDestroyed <= 1.0\ngini = 0.48\nsamples = 4\nvalue = [3, 2]\nclass = blueLose", fillcolor="#f6d5bd"] ;
49 -> 50 ;
51 [label="gini = 0.0\nsamples = 1\nvalue = [0, 2]\nclass = blueWin", fillcolor="#399de5"] ;
50 -> 51 ;
52 [label="gini = 0.0\nsamples = 3\nvalue = [3, 0]\nclass = blueLose", fillcolor="#e58139"] ;
50 -> 52 ;
53 [label="gini = 0.0\nsamples = 2\nvalue = [0, 6]\nclass = blueWin", fillcolor="#399de5"] ;
49 -> 53 ;
54 [label="gini = 0.0\nsamples = 3\nvalue = [6, 0]\nclass = blueLose", fillcolor="#e58139"] ;
48 -> 54 ;
55 [label="gini = 0.0\nsamples = 2\nvalue = [0, 3]\nclass = blueWin", fillcolor="#399de5"] ;
47 -> 55 ;
56 [label="blueGoldDiff <= -2827.5\ngini = 0.33\nsamples = 99\nvalue = [127, 34]\nclass = blueLose", fillcolor="#eca36e"] ;
42 -> 56 ;
57 [label="gini = 0.0\nsamples = 2\nvalue = [0, 2]\nclass = blueWin", fillcolor="#399de5"] ;
56 -> 57 ;
58 [label="redWardsDestroyed <= 4.5\ngini = 0.32\nsamples = 97\nvalue = [127, 32]\nclass = blueLose", fillcolor="#eca16b"] ;
56 -> 58 ;
59 [label="blueGoldDiff <= -2184.5\ngini = 0.28\nsamples = 76\nvalue = [105, 21]\nclass = blueLose", fillcolor="#ea9a61"] ;
58 -> 59 ;
60 [label="redTotalMinionsKilled <= 183.0\ngini = 0.09\nsamples = 28\nvalue = [42, 2]\nclass = blueLose", fillcolor="#e68742"] ;
59 -> 60 ;
61 [label="blueTotalJungleMinionsKilled <= 52.0\ngini = 0.5\nsamples = 2\nvalue = [1, 1]\nclass = blueLose", fillcolor="#ffffff"] ;
60 -> 61 ;
62 [label="gini = 0.0\nsamples = 1\nvalue = [0, 1]\nclass = blueWin", fillcolor="#399de5"] ;
61 -> 62 ;
63 [label="gini = 0.0\nsamples = 1\nvalue = [1, 0]\nclass = blueLose", fillcolor="#e58139"] ;
61 -> 63 ;
64 [label="blueWardsDestroyed <= 1.5\ngini = 0.05\nsamples = 26\nvalue = [41, 1]\nclass = blueLose", fillcolor="#e6843e"] ;
60 -> 64 ;
65 [label="redWardsPlaced <= 37.5\ngini = 0.15\nsamples = 9\nvalue = [11, 1]\nclass = blueLose", fillcolor="#e78c4b"] ;
64 -> 65 ;
66 [label="gini = 0.0\nsamples = 7\nvalue = [10, 0]\nclass = blueLose", fillcolor="#e58139"] ;
65 -> 66 ;
67 [label="blueTotalMinionsKilled <= 165.0\ngini = 0.5\nsamples = 2\nvalue = [1, 1]\nclass = blueLose", fillcolor="#ffffff"] ;
65 -> 67 ;
68 [label="gini = 0.0\nsamples = 1\nvalue = [1, 0]\nclass = blueLose", fillcolor="#e58139"] ;
67 -> 68 ;
69 [label="gini = 0.0\nsamples = 1\nvalue = [0, 1]\nclass = blueWin", fillcolor="#399de5"] ;
67 -> 69 ;
70 [label="gini = 0.0\nsamples = 17\nvalue = [30, 0]\nclass = blueLose", fillcolor="#e58139"] ;
64 -> 70 ;
71 [label="redWardsPlaced <= 16.5\ngini = 0.36\nsamples = 48\nvalue = [63, 19]\nclass = blueLose", fillcolor="#eda775"] ;
59 -> 71 ;
72 [label="redWardsPlaced <= 15.5\ngini = 0.25\nsamples = 28\nvalue = [41, 7]\nclass = blueLose", fillcolor="#e9975b"] ;
71 -> 72 ;
73 [label="blueWardsDestroyed <= 2.5\ngini = 0.34\nsamples = 19\nvalue = [25, 7]\nclass = blueLose", fillcolor="#eca470"] ;
72 -> 73 ;
74 [label="redTotalJungleMinionsKilled <= 37.0\ngini = 0.16\nsamples = 13\nvalue = [21, 2]\nclass = blueLose", fillcolor="#e78d4c"] ;
73 -> 74 ;
75 [label="gini = 0.0\nsamples = 1\nvalue = [0, 1]\nclass = blueWin", fillcolor="#399de5"] ;
74 -> 75 ;
76 [label="blueGoldDiff <= -1238.0\ngini = 0.09\nsamples = 12\nvalue = [21, 1]\nclass = blueLose", fillcolor="#e68742"] ;
74 -> 76 ;
77 [label="gini = 0.0\nsamples = 9\nvalue = [19, 0]\nclass = blueLose", fillcolor="#e58139"] ;
76 -> 77 ;
78 [label="blueTotalMinionsKilled <= 171.5\ngini = 0.44\nsamples = 3\nvalue = [2, 1]\nclass = blueLose", fillcolor="#f2c09c"] ;
76 -> 78 ;
79 [label="gini = 0.0\nsamples = 1\nvalue = [0, 1]\nclass = blueWin", fillcolor="#399de5"] ;
78 -> 79 ;
80 [label="gini = 0.0\nsamples = 2\nvalue = [2, 0]\nclass = blueLose", fillcolor="#e58139"] ;
78 -> 80 ;
81 [label="blueWardsPlaced <= 13.5\ngini = 0.49\nsamples = 6\nvalue = [4, 5]\nclass = blueWin", fillcolor="#d7ebfa"] ;
73 -> 81 ;
82 [label="gini = 0.0\nsamples = 2\nvalue = [0, 3]\nclass = blueWin", fillcolor="#399de5"] ;
81 -> 82 ;
83 [label="redTotalMinionsKilled <= 209.0\ngini = 0.44\nsamples = 4\nvalue = [4, 2]\nclass = blueLose", fillcolor="#f2c09c"] ;
81 -> 83 ;
84 [label="gini = 0.0\nsamples = 2\nvalue = [3, 0]\nclass = blueLose", fillcolor="#e58139"] ;
83 -> 84 ;
85 [label="redTotalMinionsKilled <= 218.0\ngini = 0.44\nsamples = 2\nvalue = [1, 2]\nclass = blueWin", fillcolor="#9ccef2"] ;
83 -> 85 ;
86 [label="gini = 0.0\nsamples = 1\nvalue = [0, 2]\nclass = blueWin", fillcolor="#399de5"] ;
85 -> 86 ;
87 [label="gini = 0.0\nsamples = 1\nvalue = [1, 0]\nclass = blueLose", fillcolor="#e58139"] ;
85 -> 87 ;
88 [label="gini = 0.0\nsamples = 9\nvalue = [16, 0]\nclass = blueLose", fillcolor="#e58139"] ;
72 -> 88 ;
89 [label="redWardsPlaced <= 17.5\ngini = 0.46\nsamples = 20\nvalue = [22, 12]\nclass = blueLose", fillcolor="#f3c6a5"] ;
71 -> 89 ;
90 [label="redWardsDestroyed <= 1.5\ngini = 0.48\nsamples = 6\nvalue = [6, 9]\nclass = blueWin", fillcolor="#bddef6"] ;
89 -> 90 ;
91 [label="gini = 0.0\nsamples = 1\nvalue = [4, 0]\nclass = blueLose", fillcolor="#e58139"] ;
90 -> 91 ;
92 [label="redWardsDestroyed <= 3.5\ngini = 0.3\nsamples = 5\nvalue = [2, 9]\nclass = blueWin", fillcolor="#65b3eb"] ;
90 -> 92 ;
93 [label="gini = 0.0\nsamples = 3\nvalue = [0, 8]\nclass = blueWin", fillcolor="#399de5"] ;
92 -> 93 ;
94 [label="blueGoldDiff <= -1552.5\ngini = 0.44\nsamples = 2\nvalue = [2, 1]\nclass = blueLose", fillcolor="#f2c09c"] ;
92 -> 94 ;
95 [label="gini = 0.0\nsamples = 1\nvalue = [0, 1]\nclass = blueWin", fillcolor="#399de5"] ;
94 -> 95 ;
96 [label="gini = 0.0\nsamples = 1\nvalue = [2, 0]\nclass = blueLose", fillcolor="#e58139"] ;
94 -> 96 ;
97 [label="blueGoldDiff <= -2006.5\ngini = 0.27\nsamples = 14\nvalue = [16, 3]\nclass = blueLose", fillcolor="#ea995e"] ;
89 -> 97 ;
98 [label="gini = 0.0\nsamples = 1\nvalue = [0, 2]\nclass = blueWin", fillcolor="#399de5"] ;
97 -> 98 ;
99 [label="redTotalJungleMinionsKilled <= 54.0\ngini = 0.11\nsamples = 13\nvalue = [16, 1]\nclass = blueLose", fillcolor="#e78945"] ;
97 -> 99 ;
100 [label="gini = 0.0\nsamples = 10\nvalue = [14, 0]\nclass = blueLose", fillcolor="#e58139"] ;
99 -> 100 ;
101 [label="blueWardsDestroyed <= 5.0\ngini = 0.44\nsamples = 3\nvalue = [2, 1]\nclass = blueLose", fillcolor="#f2c09c"] ;
99 -> 101 ;
102 [label="gini = 0.0\nsamples = 1\nvalue = [0, 1]\nclass = blueWin", fillcolor="#399de5"] ;
101 -> 102 ;
103 [label="gini = 0.0\nsamples = 2\nvalue = [2, 0]\nclass = blueLose", fillcolor="#e58139"] ;
101 -> 103 ;
104 [label="redTotalJungleMinionsKilled <= 62.0\ngini = 0.44\nsamples = 21\nvalue = [22, 11]\nclass = blueLose", fillcolor="#f2c09c"] ;
58 -> 104 ;
105 [label="redWardsDestroyed <= 8.5\ngini = 0.37\nsamples = 19\nvalue = [22, 7]\nclass = blueLose", fillcolor="#eda978"] ;
104 -> 105 ;
106 [label="redTotalJungleMinionsKilled <= 40.5\ngini = 0.34\nsamples = 18\nvalue = [22, 6]\nclass = blueLose", fillcolor="#eca36f"] ;
105 -> 106 ;
107 [label="blueGoldDiff <= -2611.5\ngini = 0.28\nsamples = 3\nvalue = [1, 5]\nclass = blueWin", fillcolor="#61b1ea"] ;
106 -> 107 ;
108 [label="gini = 0.0\nsamples = 1\nvalue = [1, 0]\nclass = blueLose", fillcolor="#e58139"] ;
107 -> 108 ;
109 [label="gini = 0.0\nsamples = 2\nvalue = [0, 5]\nclass = blueWin", fillcolor="#399de5"] ;
107 -> 109 ;
110 [label="redWardsPlaced <= 57.0\ngini = 0.09\nsamples = 15\nvalue = [21, 1]\nclass = blueLose", fillcolor="#e68742"] ;
106 -> 110 ;
111 [label="gini = 0.0\nsamples = 14\nvalue = [21, 0]\nclass = blueLose", fillcolor="#e58139"] ;
110 -> 111 ;
112 [label="gini = 0.0\nsamples = 1\nvalue = [0, 1]\nclass = blueWin", fillcolor="#399de5"] ;
110 -> 112 ;
113 [label="gini = 0.0\nsamples = 1\nvalue = [0, 1]\nclass = blueWin", fillcolor="#399de5"] ;
105 -> 113 ;
114 [label="gini = 0.0\nsamples = 2\nvalue = [0, 4]\nclass = blueWin", fillcolor="#399de5"] ;
104 -> 114 ;
115 [label="blueWardsPlaced <= 18.0\ngini = 0.22\nsamples = 4\nvalue = [1, 7]\nclass = blueWin", fillcolor="#55abe9"] ;
41 -> 115 ;
116 [label="gini = 0.0\nsamples = 3\nvalue = [0, 7]\nclass = blueWin", fillcolor="#399de5"] ;
115 -> 116 ;
117 [label="gini = 0.0\nsamples = 1\nvalue = [1, 0]\nclass = blueLose", fillcolor="#e58139"] ;
115 -> 117 ;
118 [label="blueTotalMinionsKilled <= 178.5\ngini = 0.48\nsamples = 80\nvalue = [49, 70]\nclass = blueWin", fillcolor="#c4e2f7"] ;
2 -> 118 ;
119 [label="blueGoldDiff <= 1648.5\ngini = 0.41\nsamples = 55\nvalue = [21, 53]\nclass = blueWin", fillcolor="#87c4ef"] ;
118 -> 119 ;
120 [label="redTotalJungleMinionsKilled <= 45.5\ngini = 0.47\nsamples = 41\nvalue = [21, 36]\nclass = blueWin", fillcolor="#acd6f4"] ;
119 -> 120 ;
121 [label="redTotalMinionsKilled <= 208.5\ngini = 0.4\nsamples = 10\nvalue = [8, 3]\nclass = blueLose", fillcolor="#efb083"] ;
120 -> 121 ;
122 [label="gini = 0.0\nsamples = 6\nvalue = [7, 0]\nclass = blueLose", fillcolor="#e58139"] ;
121 -> 122 ;
123 [label="redWardsPlaced <= 13.5\ngini = 0.38\nsamples = 4\nvalue = [1, 3]\nclass = blueWin", fillcolor="#7bbeee"] ;
121 -> 123 ;
124 [label="gini = 0.0\nsamples = 1\nvalue = [1, 0]\nclass = blueLose", fillcolor="#e58139"] ;
123 -> 124 ;
125 [label="gini = 0.0\nsamples = 3\nvalue = [0, 3]\nclass = blueWin", fillcolor="#399de5"] ;
123 -> 125 ;
126 [label="blueWardsPlaced <= 40.0\ngini = 0.41\nsamples = 31\nvalue = [13, 33]\nclass = blueWin", fillcolor="#87c4ef"] ;
120 -> 126 ;
127 [label="blueGoldDiff <= -589.0\ngini = 0.34\nsamples = 27\nvalue = [9, 32]\nclass = blueWin", fillcolor="#71b9ec"] ;
126 -> 127 ;
128 [label="gini = 0.0\nsamples = 3\nvalue = [3, 0]\nclass = blueLose", fillcolor="#e58139"] ;
127 -> 128 ;
129 [label="blueWardsDestroyed <= 0.5\ngini = 0.27\nsamples = 24\nvalue = [6, 32]\nclass = blueWin", fillcolor="#5eafea"] ;
127 -> 129 ;
130 [label="gini = 0.0\nsamples = 1\nvalue = [1, 0]\nclass = blueLose", fillcolor="#e58139"] ;
129 -> 130 ;
131 [label="redWardsPlaced <= 91.0\ngini = 0.23\nsamples = 23\nvalue = [5, 32]\nclass = blueWin", fillcolor="#58ace9"] ;
129 -> 131 ;
132 [label="blueGoldDiff <= 1456.5\ngini = 0.2\nsamples = 22\nvalue = [4, 32]\nclass = blueWin", fillcolor="#52a9e8"] ;
131 -> 132 ;
133 [label="blueWardsDestroyed <= 1.5\ngini = 0.16\nsamples = 20\nvalue = [3, 31]\nclass = blueWin", fillcolor="#4ca6e8"] ;
132 -> 133 ;
134 [label="gini = 0.0\nsamples = 8\nvalue = [0, 16]\nclass = blueWin", fillcolor="#399de5"] ;
133 -> 134 ;
135 [label="redWardsPlaced <= 15.5\ngini = 0.28\nsamples = 12\nvalue = [3, 15]\nclass = blueWin", fillcolor="#61b1ea"] ;
133 -> 135 ;
136 [label="gini = 0.0\nsamples = 4\nvalue = [0, 8]\nclass = blueWin", fillcolor="#399de5"] ;
135 -> 136 ;
137 [label="redWardsPlaced <= 16.5\ngini = 0.42\nsamples = 8\nvalue = [3, 7]\nclass = blueWin", fillcolor="#8ec7f0"] ;
135 -> 137 ;
138 [label="gini = 0.0\nsamples = 2\nvalue = [2, 0]\nclass = blueLose", fillcolor="#e58139"] ;
137 -> 138 ;
139 [label="blueGoldDiff <= 106.0\ngini = 0.22\nsamples = 6\nvalue = [1, 7]\nclass = blueWin", fillcolor="#55abe9"] ;
137 -> 139 ;
140 [label="blueWardsDestroyed <= 2.5\ngini = 0.5\nsamples = 2\nvalue = [1, 1]\nclass = blueLose", fillcolor="#ffffff"] ;
139 -> 140 ;
141 [label="gini = 0.0\nsamples = 1\nvalue = [1, 0]\nclass = blueLose", fillcolor="#e58139"] ;
140 -> 141 ;
142 [label="gini = 0.0\nsamples = 1\nvalue = [0, 1]\nclass = blueWin", fillcolor="#399de5"] ;
140 -> 142 ;
143 [label="gini = 0.0\nsamples = 4\nvalue = [0, 6]\nclass = blueWin", fillcolor="#399de5"] ;
139 -> 143 ;
144 [label="redWardsDestroyed <= 2.5\ngini = 0.5\nsamples = 2\nvalue = [1, 1]\nclass = blueLose", fillcolor="#ffffff"] ;
132 -> 144 ;
145 [label="gini = 0.0\nsamples = 1\nvalue = [1, 0]\nclass = blueLose", fillcolor="#e58139"] ;
144 -> 145 ;
146 [label="gini = 0.0\nsamples = 1\nvalue = [0, 1]\nclass = blueWin", fillcolor="#399de5"] ;
144 -> 146 ;
147 [label="gini = 0.0\nsamples = 1\nvalue = [1, 0]\nclass = blueLose", fillcolor="#e58139"] ;
131 -> 147 ;
148 [label="redWardsDestroyed <= 0.5\ngini = 0.32\nsamples = 4\nvalue = [4, 1]\nclass = blueLose", fillcolor="#eca06a"] ;
126 -> 148 ;
149 [label="gini = 0.0\nsamples = 1\nvalue = [0, 1]\nclass = blueWin", fillcolor="#399de5"] ;
148 -> 149 ;
150 [label="gini = 0.0\nsamples = 3\nvalue = [4, 0]\nclass = blueLose", fillcolor="#e58139"] ;
148 -> 150 ;
151 [label="gini = 0.0\nsamples = 14\nvalue = [0, 17]\nclass = blueWin", fillcolor="#399de5"] ;
119 -> 151 ;
152 [label="redTotalMinionsKilled <= 182.5\ngini = 0.47\nsamples = 25\nvalue = [28, 17]\nclass = blueLose", fillcolor="#f5ceb1"] ;
118 -> 152 ;
153 [label="gini = 0.0\nsamples = 4\nvalue = [0, 5]\nclass = blueWin", fillcolor="#399de5"] ;
152 -> 153 ;
154 [label="redTotalMinionsKilled <= 238.5\ngini = 0.42\nsamples = 21\nvalue = [28, 12]\nclass = blueLose", fillcolor="#f0b78e"] ;
152 -> 154 ;
155 [label="redWardsPlaced <= 12.0\ngini = 0.35\nsamples = 19\nvalue = [28, 8]\nclass = blueLose", fillcolor="#eca572"] ;
154 -> 155 ;
156 [label="gini = 0.0\nsamples = 2\nvalue = [0, 3]\nclass = blueWin", fillcolor="#399de5"] ;
155 -> 156 ;
157 [label="redWardsPlaced <= 29.5\ngini = 0.26\nsamples = 17\nvalue = [28, 5]\nclass = blueLose", fillcolor="#ea985c"] ;
155 -> 157 ;
158 [label="redTotalMinionsKilled <= 200.0\ngini = 0.22\nsamples = 16\nvalue = [28, 4]\nclass = blueLose", fillcolor="#e99355"] ;
157 -> 158 ;
159 [label="blueWardsPlaced <= 28.5\ngini = 0.47\nsamples = 4\nvalue = [5, 3]\nclass = blueLose", fillcolor="#f5cdb0"] ;
158 -> 159 ;
160 [label="redTotalMinionsKilled <= 188.5\ngini = 0.28\nsamples = 3\nvalue = [5, 1]\nclass = blueLose", fillcolor="#ea9a61"] ;
159 -> 160 ;
161 [label="gini = 0.0\nsamples = 1\nvalue = [3, 0]\nclass = blueLose", fillcolor="#e58139"] ;
160 -> 161 ;
162 [label="blueTotalMinionsKilled <= 180.0\ngini = 0.44\nsamples = 2\nvalue = [2, 1]\nclass = blueLose", fillcolor="#f2c09c"] ;
160 -> 162 ;
163 [label="gini = 0.0\nsamples = 1\nvalue = [2, 0]\nclass = blueLose", fillcolor="#e58139"] ;
162 -> 163 ;
164 [label="gini = 0.0\nsamples = 1\nvalue = [0, 1]\nclass = blueWin", fillcolor="#399de5"] ;
162 -> 164 ;
165 [label="gini = 0.0\nsamples = 1\nvalue = [0, 2]\nclass = blueWin", fillcolor="#399de5"] ;
159 -> 165 ;
166 [label="blueGoldDiff <= -86.0\ngini = 0.08\nsamples = 12\nvalue = [23, 1]\nclass = blueLose", fillcolor="#e68642"] ;
158 -> 166 ;
167 [label="blueWardsDestroyed <= 3.0\ngini = 0.44\nsamples = 2\nvalue = [2, 1]\nclass = blueLose", fillcolor="#f2c09c"] ;
166 -> 167 ;
168 [label="gini = 0.0\nsamples = 1\nvalue = [0, 1]\nclass = blueWin", fillcolor="#399de5"] ;
167 -> 168 ;
169 [label="gini = 0.0\nsamples = 1\nvalue = [2, 0]\nclass = blueLose", fillcolor="#e58139"] ;
167 -> 169 ;
170 [label="gini = 0.0\nsamples = 10\nvalue = [21, 0]\nclass = blueLose", fillcolor="#e58139"] ;
166 -> 170 ;
171 [label="gini = 0.0\nsamples = 1\nvalue = [0, 1]\nclass = blueWin", fillcolor="#399de5"] ;
157 -> 171 ;
172 [label="gini = 0.0\nsamples = 2\nvalue = [0, 4]\nclass = blueWin", fillcolor="#399de5"] ;
154 -> 172 ;
173 [label="redTotalJungleMinionsKilled <= 51.5\ngini = 0.49\nsamples = 1977\nvalue = [1840, 1312]\nclass = blueLose", fillcolor="#f8dbc6"] ;
1 -> 173 ;
174 [label="redTotalMinionsKilled <= 215.5\ngini = 0.5\nsamples = 1066\nvalue = [915, 804]\nclass = blueLose", fillcolor="#fcf0e7"] ;
173 -> 174 ;
175 [label="blueTotalJungleMinionsKilled <= 39.5\ngini = 0.49\nsamples = 540\nvalue = [381, 478]\nclass = blueWin", fillcolor="#d7ebfa"] ;
174 -> 175 ;
176 [label="blueTotalMinionsKilled <= 203.5\ngini = 0.49\nsamples = 100\nvalue = [88, 69]\nclass = blueLose", fillcolor="#f9e4d4"] ;
175 -> 176 ;
177 [label="blueWardsDestroyed <= 4.5\ngini = 0.43\nsamples = 54\nvalue = [61, 27]\nclass = blueLose", fillcolor="#f1b991"] ;
176 -> 177 ;
178 [label="redWardsPlaced <= 14.5\ngini = 0.36\nsamples = 48\nvalue = [59, 18]\nclass = blueLose", fillcolor="#eda775"] ;
177 -> 178 ;
179 [label="blueTotalJungleMinionsKilled <= 31.5\ngini = 0.44\nsamples = 12\nvalue = [5, 10]\nclass = blueWin", fillcolor="#9ccef2"] ;
178 -> 179 ;
180 [label="gini = 0.0\nsamples = 2\nvalue = [2, 0]\nclass = blueLose", fillcolor="#e58139"] ;
179 -> 180 ;
181 [label="redWardsDestroyed <= 4.5\ngini = 0.36\nsamples = 10\nvalue = [3, 10]\nclass = blueWin", fillcolor="#74baed"] ;
179 -> 181 ;
182 [label="gini = 0.0\nsamples = 7\nvalue = [0, 10]\nclass = blueWin", fillcolor="#399de5"] ;
181 -> 182 ;
183 [label="gini = 0.0\nsamples = 3\nvalue = [3, 0]\nclass = blueLose", fillcolor="#e58139"] ;
181 -> 183 ;
184 [label="blueGoldDiff <= 1202.5\ngini = 0.22\nsamples = 36\nvalue = [54, 8]\nclass = blueLose", fillcolor="#e99456"] ;
178 -> 184 ;
185 [label="blueTotalMinionsKilled <= 185.0\ngini = 0.1\nsamples = 31\nvalue = [51, 3]\nclass = blueLose", fillcolor="#e78845"] ;
184 -> 185 ;
186 [label="gini = 0.0\nsamples = 1\nvalue = [0, 1]\nclass = blueWin", fillcolor="#399de5"] ;
185 -> 186 ;
187 [label="blueWardsPlaced <= 29.5\ngini = 0.07\nsamples = 30\nvalue = [51, 2]\nclass = blueLose", fillcolor="#e68641"] ;
185 -> 187 ;
188 [label="gini = 0.0\nsamples = 27\nvalue = [48, 0]\nclass = blueLose", fillcolor="#e58139"] ;
187 -> 188 ;
189 [label="blueWardsPlaced <= 38.5\ngini = 0.48\nsamples = 3\nvalue = [3, 2]\nclass = blueLose", fillcolor="#f6d5bd"] ;
187 -> 189 ;
190 [label="gini = 0.0\nsamples = 1\nvalue = [0, 2]\nclass = blueWin", fillcolor="#399de5"] ;
189 -> 190 ;
191 [label="gini = 0.0\nsamples = 2\nvalue = [3, 0]\nclass = blueLose", fillcolor="#e58139"] ;
189 -> 191 ;
192 [label="redTotalMinionsKilled <= 200.5\ngini = 0.47\nsamples = 5\nvalue = [3, 5]\nclass = blueWin", fillcolor="#b0d8f5"] ;
184 -> 192 ;
193 [label="gini = 0.0\nsamples = 4\nvalue = [0, 5]\nclass = blueWin", fillcolor="#399de5"] ;
192 -> 193 ;
194 [label="gini = 0.0\nsamples = 1\nvalue = [3, 0]\nclass = blueLose", fillcolor="#e58139"] ;
192 -> 194 ;
195 [label="redTotalJungleMinionsKilled <= 37.5\ngini = 0.3\nsamples = 6\nvalue = [2, 9]\nclass = blueWin", fillcolor="#65b3eb"] ;
177 -> 195 ;
196 [label="gini = 0.0\nsamples = 1\nvalue = [1, 0]\nclass = blueLose", fillcolor="#e58139"] ;
195 -> 196 ;
197 [label="blueTotalMinionsKilled <= 198.0\ngini = 0.18\nsamples = 5\nvalue = [1, 9]\nclass = blueWin", fillcolor="#4fa8e8"] ;
195 -> 197 ;
198 [label="gini = 0.0\nsamples = 4\nvalue = [0, 9]\nclass = blueWin", fillcolor="#399de5"] ;
197 -> 198 ;
199 [label="gini = 0.0\nsamples = 1\nvalue = [1, 0]\nclass = blueLose", fillcolor="#e58139"] ;
197 -> 199 ;
200 [label="blueTotalMinionsKilled <= 213.5\ngini = 0.48\nsamples = 46\nvalue = [27, 42]\nclass = blueWin", fillcolor="#b8dcf6"] ;
176 -> 200 ;
201 [label="redWardsPlaced <= 12.5\ngini = 0.44\nsamples = 36\nvalue = [18, 38]\nclass = blueWin", fillcolor="#97cbf1"] ;
200 -> 201 ;
202 [label="gini = 0.0\nsamples = 2\nvalue = [5, 0]\nclass = blueLose", fillcolor="#e58139"] ;
201 -> 202 ;
203 [label="blueGoldDiff <= -462.0\ngini = 0.38\nsamples = 34\nvalue = [13, 38]\nclass = blueWin", fillcolor="#7dbfee"] ;
201 -> 203 ;
204 [label="blueWardsDestroyed <= 1.5\ngini = 0.46\nsamples = 12\nvalue = [11, 6]\nclass = blueLose", fillcolor="#f3c6a5"] ;
203 -> 204 ;
205 [label="gini = 0.0\nsamples = 3\nvalue = [7, 0]\nclass = blueLose", fillcolor="#e58139"] ;
204 -> 205 ;
206 [label="redTotalMinionsKilled <= 205.0\ngini = 0.48\nsamples = 9\nvalue = [4, 6]\nclass = blueWin", fillcolor="#bddef6"] ;
204 -> 206 ;
207 [label="gini = 0.0\nsamples = 3\nvalue = [0, 4]\nclass = blueWin", fillcolor="#399de5"] ;
206 -> 207 ;
208 [label="redWardsDestroyed <= 2.5\ngini = 0.44\nsamples = 6\nvalue = [4, 2]\nclass = blueLose", fillcolor="#f2c09c"] ;
206 -> 208 ;
209 [label="blueTotalJungleMinionsKilled <= 26.5\ngini = 0.44\nsamples = 3\nvalue = [1, 2]\nclass = blueWin", fillcolor="#9ccef2"] ;
208 -> 209 ;
210 [label="gini = 0.0\nsamples = 1\nvalue = [1, 0]\nclass = blueLose", fillcolor="#e58139"] ;
209 -> 210 ;
211 [label="gini = 0.0\nsamples = 2\nvalue = [0, 2]\nclass = blueWin", fillcolor="#399de5"] ;
209 -> 211 ;
212 [label="gini = 0.0\nsamples = 3\nvalue = [3, 0]\nclass = blueLose", fillcolor="#e58139"] ;
208 -> 212 ;
213 [label="redWardsPlaced <= 14.5\ngini = 0.11\nsamples = 22\nvalue = [2, 32]\nclass = blueWin", fillcolor="#45a3e7"] ;
203 -> 213 ;
214 [label="blueWardsDestroyed <= 2.5\ngini = 0.35\nsamples = 6\nvalue = [2, 7]\nclass = blueWin", fillcolor="#72b9ec"] ;
213 -> 214 ;
215 [label="blueTotalJungleMinionsKilled <= 33.5\ngini = 0.44\nsamples = 3\nvalue = [2, 1]\nclass = blueLose", fillcolor="#f2c09c"] ;
214 -> 215 ;
216 [label="gini = 0.0\nsamples = 2\nvalue = [2, 0]\nclass = blueLose", fillcolor="#e58139"] ;
215 -> 216 ;
217 [label="gini = 0.0\nsamples = 1\nvalue = [0, 1]\nclass = blueWin", fillcolor="#399de5"] ;
215 -> 217 ;
218 [label="gini = 0.0\nsamples = 3\nvalue = [0, 6]\nclass = blueWin", fillcolor="#399de5"] ;
214 -> 218 ;
219 [label="gini = 0.0\nsamples = 16\nvalue = [0, 25]\nclass = blueWin", fillcolor="#399de5"] ;
213 -> 219 ;
220 [label="blueGoldDiff <= 832.0\ngini = 0.43\nsamples = 10\nvalue = [9, 4]\nclass = blueLose", fillcolor="#f1b991"] ;
200 -> 220 ;
221 [label="gini = 0.0\nsamples = 5\nvalue = [8, 0]\nclass = blueLose", fillcolor="#e58139"] ;
220 -> 221 ;
222 [label="blueWardsPlaced <= 14.0\ngini = 0.32\nsamples = 5\nvalue = [1, 4]\nclass = blueWin", fillcolor="#6ab6ec"] ;
220 -> 222 ;
223 [label="redTotalMinionsKilled <= 195.0\ngini = 0.5\nsamples = 2\nvalue = [1, 1]\nclass = blueLose", fillcolor="#ffffff"] ;
222 -> 223 ;
224 [label="gini = 0.0\nsamples = 1\nvalue = [0, 1]\nclass = blueWin", fillcolor="#399de5"] ;
223 -> 224 ;
225 [label="gini = 0.0\nsamples = 1\nvalue = [1, 0]\nclass = blueLose", fillcolor="#e58139"] ;
223 -> 225 ;
226 [label="gini = 0.0\nsamples = 3\nvalue = [0, 3]\nclass = blueWin", fillcolor="#399de5"] ;
222 -> 226 ;
227 [label="blueWardsPlaced <= 13.5\ngini = 0.49\nsamples = 440\nvalue = [293, 409]\nclass = blueWin", fillcolor="#c7e3f8"] ;
175 -> 227 ;
228 [label="blueGoldDiff <= 1855.5\ngini = 0.49\nsamples = 79\nvalue = [73, 53]\nclass = blueLose", fillcolor="#f8dcc9"] ;
227 -> 228 ;
229 [label="blueWardsPlaced <= 9.5\ngini = 0.46\nsamples = 64\nvalue = [68, 39]\nclass = blueLose", fillcolor="#f4c9ab"] ;
228 -> 229 ;
230 [label="redWardsDestroyed <= 2.0\ngini = 0.32\nsamples = 3\nvalue = [1, 4]\nclass = blueWin", fillcolor="#6ab6ec"] ;
229 -> 230 ;
231 [label="gini = 0.0\nsamples = 2\nvalue = [0, 4]\nclass = blueWin", fillcolor="#399de5"] ;
230 -> 231 ;
232 [label="gini = 0.0\nsamples = 1\nvalue = [1, 0]\nclass = blueLose", fillcolor="#e58139"] ;
230 -> 232 ;
233 [label="blueTotalMinionsKilled <= 193.0\ngini = 0.45\nsamples = 61\nvalue = [67, 35]\nclass = blueLose", fillcolor="#f3c3a0"] ;
229 -> 233 ;
234 [label="blueTotalMinionsKilled <= 183.5\ngini = 0.12\nsamples = 11\nvalue = [14, 1]\nclass = blueLose", fillcolor="#e78a47"] ;
233 -> 234 ;
235 [label="blueGoldDiff <= -3205.0\ngini = 0.44\nsamples = 2\nvalue = [2, 1]\nclass = blueLose", fillcolor="#f2c09c"] ;
234 -> 235 ;
236 [label="gini = 0.0\nsamples = 1\nvalue = [0, 1]\nclass = blueWin", fillcolor="#399de5"] ;
235 -> 236 ;
237 [label="gini = 0.0\nsamples = 1\nvalue = [2, 0]\nclass = blueLose", fillcolor="#e58139"] ;
235 -> 237 ;
238 [label="gini = 0.0\nsamples = 9\nvalue = [12, 0]\nclass = blueLose", fillcolor="#e58139"] ;
234 -> 238 ;
239 [label="blueWardsPlaced <= 10.5\ngini = 0.48\nsamples = 50\nvalue = [53, 34]\nclass = blueLose", fillcolor="#f6d2b8"] ;
233 -> 239 ;
240 [label="blueTotalMinionsKilled <= 197.5\ngini = 0.12\nsamples = 9\nvalue = [15, 1]\nclass = blueLose", fillcolor="#e78946"] ;
239 -> 240 ;
241 [label="redTotalJungleMinionsKilled <= 41.5\ngini = 0.5\nsamples = 2\nvalue = [1, 1]\nclass = blueLose", fillcolor="#ffffff"] ;
240 -> 241 ;
242 [label="gini = 0.0\nsamples = 1\nvalue = [0, 1]\nclass = blueWin", fillcolor="#399de5"] ;
241 -> 242 ;
243 [label="gini = 0.0\nsamples = 1\nvalue = [1, 0]\nclass = blueLose", fillcolor="#e58139"] ;
241 -> 243 ;
244 [label="gini = 0.0\nsamples = 7\nvalue = [14, 0]\nclass = blueLose", fillcolor="#e58139"] ;
240 -> 244 ;
245 [label="blueWardsDestroyed <= 2.5\ngini = 0.5\nsamples = 41\nvalue = [38, 33]\nclass = blueLose", fillcolor="#fceee5"] ;
239 -> 245 ;
246 [label="redTotalMinionsKilled <= 196.5\ngini = 0.49\nsamples = 27\nvalue = [21, 27]\nclass = blueWin", fillcolor="#d3e9f9"] ;
245 -> 246 ;
247 [label="blueGoldDiff <= -4270.0\ngini = 0.18\nsamples = 6\nvalue = [1, 9]\nclass = blueWin", fillcolor="#4fa8e8"] ;
246 -> 247 ;
248 [label="gini = 0.0\nsamples = 1\nvalue = [1, 0]\nclass = blueLose", fillcolor="#e58139"] ;
247 -> 248 ;
249 [label="gini = 0.0\nsamples = 5\nvalue = [0, 9]\nclass = blueWin", fillcolor="#399de5"] ;
247 -> 249 ;
250 [label="blueGoldDiff <= -1663.0\ngini = 0.5\nsamples = 21\nvalue = [20, 18]\nclass = blueLose", fillcolor="#fcf2eb"] ;
246 -> 250 ;
251 [label="gini = 0.0\nsamples = 8\nvalue = [11, 0]\nclass = blueLose", fillcolor="#e58139"] ;
250 -> 251 ;
252 [label="redWardsDestroyed <= 3.5\ngini = 0.44\nsamples = 13\nvalue = [9, 18]\nclass = blueWin", fillcolor="#9ccef2"] ;
250 -> 252 ;
253 [label="blueTotalJungleMinionsKilled <= 65.0\ngini = 0.4\nsamples = 12\nvalue = [7, 18]\nclass = blueWin", fillcolor="#86c3ef"] ;
252 -> 253 ;
254 [label="blueTotalMinionsKilled <= 201.5\ngini = 0.3\nsamples = 11\nvalue = [4, 18]\nclass = blueWin", fillcolor="#65b3eb"] ;
253 -> 254 ;
255 [label="blueTotalMinionsKilled <= 197.5\ngini = 0.5\nsamples = 2\nvalue = [3, 3]\nclass = blueLose", fillcolor="#ffffff"] ;
254 -> 255 ;
256 [label="gini = 0.0\nsamples = 1\nvalue = [0, 3]\nclass = blueWin", fillcolor="#399de5"] ;
255 -> 256 ;
257 [label="gini = 0.0\nsamples = 1\nvalue = [3, 0]\nclass = blueLose", fillcolor="#e58139"] ;
255 -> 257 ;
258 [label="blueWardsPlaced <= 12.5\ngini = 0.12\nsamples = 9\nvalue = [1, 15]\nclass = blueWin", fillcolor="#46a4e7"] ;
254 -> 258 ;
259 [label="gini = 0.0\nsamples = 7\nvalue = [0, 13]\nclass = blueWin", fillcolor="#399de5"] ;
258 -> 259 ;
260 [label="redTotalJungleMinionsKilled <= 43.0\ngini = 0.44\nsamples = 2\nvalue = [1, 2]\nclass = blueWin", fillcolor="#9ccef2"] ;
258 -> 260 ;
261 [label="gini = 0.0\nsamples = 1\nvalue = [1, 0]\nclass = blueLose", fillcolor="#e58139"] ;
260 -> 261 ;
262 [label="gini = 0.0\nsamples = 1\nvalue = [0, 2]\nclass = blueWin", fillcolor="#399de5"] ;
260 -> 262 ;
263 [label="gini = 0.0\nsamples = 1\nvalue = [3, 0]\nclass = blueLose", fillcolor="#e58139"] ;
253 -> 263 ;
264 [label="gini = 0.0\nsamples = 1\nvalue = [2, 0]\nclass = blueLose", fillcolor="#e58139"] ;
252 -> 264 ;
265 [label="redTotalJungleMinionsKilled <= 45.5\ngini = 0.39\nsamples = 14\nvalue = [17, 6]\nclass = blueLose", fillcolor="#eead7f"] ;
245 -> 265 ;
266 [label="blueGoldDiff <= -1249.5\ngini = 0.5\nsamples = 7\nvalue = [5, 6]\nclass = blueWin", fillcolor="#deeffb"] ;
265 -> 266 ;
267 [label="gini = 0.0\nsamples = 2\nvalue = [0, 4]\nclass = blueWin", fillcolor="#399de5"] ;
266 -> 267 ;
268 [label="redWardsDestroyed <= 1.5\ngini = 0.41\nsamples = 5\nvalue = [5, 2]\nclass = blueLose", fillcolor="#efb388"] ;
266 -> 268 ;
269 [label="gini = 0.0\nsamples = 2\nvalue = [0, 2]\nclass = blueWin", fillcolor="#399de5"] ;
268 -> 269 ;
270 [label="gini = 0.0\nsamples = 3\nvalue = [5, 0]\nclass = blueLose", fillcolor="#e58139"] ;
268 -> 270 ;
271 [label="gini = 0.0\nsamples = 7\nvalue = [12, 0]\nclass = blueLose", fillcolor="#e58139"] ;
265 -> 271 ;
272 [label="blueGoldDiff <= 3444.5\ngini = 0.39\nsamples = 15\nvalue = [5, 14]\nclass = blueWin", fillcolor="#80c0ee"] ;
228 -> 272 ;
273 [label="blueWardsPlaced <= 10.5\ngini = 0.23\nsamples = 12\nvalue = [2, 13]\nclass = blueWin", fillcolor="#57ace9"] ;
272 -> 273 ;
274 [label="redTotalMinionsKilled <= 207.5\ngini = 0.5\nsamples = 3\nvalue = [2, 2]\nclass = blueLose", fillcolor="#ffffff"] ;
273 -> 274 ;
275 [label="gini = 0.0\nsamples = 2\nvalue = [2, 0]\nclass = blueLose", fillcolor="#e58139"] ;
274 -> 275 ;
276 [label="gini = 0.0\nsamples = 1\nvalue = [0, 2]\nclass = blueWin", fillcolor="#399de5"] ;
274 -> 276 ;
277 [label="gini = 0.0\nsamples = 9\nvalue = [0, 11]\nclass = blueWin", fillcolor="#399de5"] ;
273 -> 277 ;
278 [label="blueWardsDestroyed <= 4.5\ngini = 0.38\nsamples = 3\nvalue = [3, 1]\nclass = blueLose", fillcolor="#eeab7b"] ;
272 -> 278 ;
279 [label="gini = 0.0\nsamples = 2\nvalue = [3, 0]\nclass = blueLose", fillcolor="#e58139"] ;
278 -> 279 ;
280 [label="gini = 0.0\nsamples = 1\nvalue = [0, 1]\nclass = blueWin", fillcolor="#399de5"] ;
278 -> 280 ;
281 [label="redWardsDestroyed <= 4.5\ngini = 0.47\nsamples = 361\nvalue = [220, 356]\nclass = blueWin", fillcolor="#b3daf5"] ;
227 -> 281 ;
282 [label="blueGoldDiff <= 632.0\ngini = 0.46\nsamples = 322\nvalue = [191, 330]\nclass = blueWin", fillcolor="#acd6f4"] ;
281 -> 282 ;
283 [label="blueGoldDiff <= -1535.0\ngini = 0.49\nsamples = 148\nvalue = [138, 111]\nclass = blueLose", fillcolor="#fae6d8"] ;
282 -> 283 ;
284 [label="blueWardsPlaced <= 17.5\ngini = 0.23\nsamples = 37\nvalue = [51, 8]\nclass = blueLose", fillcolor="#e99558"] ;
283 -> 284 ;
285 [label="redWardsPlaced <= 22.5\ngini = 0.13\nsamples = 24\nvalue = [39, 3]\nclass = blueLose", fillcolor="#e78b48"] ;
284 -> 285 ;
286 [label="blueGoldDiff <= -2395.0\ngini = 0.06\nsamples = 16\nvalue = [32, 1]\nclass = blueLose", fillcolor="#e6853f"] ;
285 -> 286 ;
287 [label="redTotalJungleMinionsKilled <= 47.5\ngini = 0.14\nsamples = 7\nvalue = [12, 1]\nclass = blueLose", fillcolor="#e78c49"] ;
286 -> 287 ;
288 [label="blueWardsPlaced <= 14.5\ngini = 0.38\nsamples = 3\nvalue = [3, 1]\nclass = blueLose", fillcolor="#eeab7b"] ;
287 -> 288 ;
289 [label="gini = 0.0\nsamples = 1\nvalue = [0, 1]\nclass = blueWin", fillcolor="#399de5"] ;
288 -> 289 ;
290 [label="gini = 0.0\nsamples = 2\nvalue = [3, 0]\nclass = blueLose", fillcolor="#e58139"] ;
288 -> 290 ;
291 [label="gini = 0.0\nsamples = 4\nvalue = [9, 0]\nclass = blueLose", fillcolor="#e58139"] ;
287 -> 291 ;
292 [label="gini = 0.0\nsamples = 9\nvalue = [20, 0]\nclass = blueLose", fillcolor="#e58139"] ;
286 -> 292 ;
293 [label="redWardsPlaced <= 28.5\ngini = 0.35\nsamples = 8\nvalue = [7, 2]\nclass = blueLose", fillcolor="#eca572"] ;
285 -> 293 ;
294 [label="gini = 0.0\nsamples = 1\nvalue = [0, 1]\nclass = blueWin", fillcolor="#399de5"] ;
293 -> 294 ;
295 [label="blueTotalJungleMinionsKilled <= 47.0\ngini = 0.22\nsamples = 7\nvalue = [7, 1]\nclass = blueLose", fillcolor="#e99355"] ;
293 -> 295 ;
296 [label="redTotalJungleMinionsKilled <= 46.0\ngini = 0.5\nsamples = 2\nvalue = [1, 1]\nclass = blueLose", fillcolor="#ffffff"] ;
295 -> 296 ;
297 [label="gini = 0.0\nsamples = 1\nvalue = [1, 0]\nclass = blueLose", fillcolor="#e58139"] ;
296 -> 297 ;
298 [label="gini = 0.0\nsamples = 1\nvalue = [0, 1]\nclass = blueWin", fillcolor="#399de5"] ;
296 -> 298 ;
299 [label="gini = 0.0\nsamples = 5\nvalue = [6, 0]\nclass = blueLose", fillcolor="#e58139"] ;
295 -> 299 ;
300 [label="redWardsPlaced <= 19.0\ngini = 0.42\nsamples = 13\nvalue = [12, 5]\nclass = blueLose", fillcolor="#f0b58b"] ;
284 -> 300 ;
301 [label="blueGoldDiff <= -2178.0\ngini = 0.26\nsamples = 11\nvalue = [11, 2]\nclass = blueLose", fillcolor="#ea985d"] ;
300 -> 301 ;
302 [label="gini = 0.0\nsamples = 6\nvalue = [7, 0]\nclass = blueLose", fillcolor="#e58139"] ;
301 -> 302 ;
303 [label="blueGoldDiff <= -1809.0\ngini = 0.44\nsamples = 5\nvalue = [4, 2]\nclass = blueLose", fillcolor="#f2c09c"] ;
301 -> 303 ;
304 [label="redWardsDestroyed <= 2.0\ngini = 0.44\nsamples = 3\nvalue = [1, 2]\nclass = blueWin", fillcolor="#9ccef2"] ;
303 -> 304 ;
305 [label="gini = 0.0\nsamples = 2\nvalue = [0, 2]\nclass = blueWin", fillcolor="#399de5"] ;
304 -> 305 ;
306 [label="gini = 0.0\nsamples = 1\nvalue = [1, 0]\nclass = blueLose", fillcolor="#e58139"] ;
304 -> 306 ;
307 [label="gini = 0.0\nsamples = 2\nvalue = [3, 0]\nclass = blueLose", fillcolor="#e58139"] ;
303 -> 307 ;
308 [label="blueGoldDiff <= -2649.0\ngini = 0.38\nsamples = 2\nvalue = [1, 3]\nclass = blueWin", fillcolor="#7bbeee"] ;
300 -> 308 ;
309 [label="gini = 0.0\nsamples = 1\nvalue = [0, 3]\nclass = blueWin", fillcolor="#399de5"] ;
308 -> 309 ;
310 [label="gini = 0.0\nsamples = 1\nvalue = [1, 0]\nclass = blueLose", fillcolor="#e58139"] ;
308 -> 310 ;
311 [label="redTotalJungleMinionsKilled <= 33.0\ngini = 0.5\nsamples = 111\nvalue = [87, 103]\nclass = blueWin", fillcolor="#e0f0fb"] ;
283 -> 311 ;
312 [label="gini = 0.0\nsamples = 4\nvalue = [9, 0]\nclass = blueLose", fillcolor="#e58139"] ;
311 -> 312 ;
313 [label="blueTotalJungleMinionsKilled <= 57.5\ngini = 0.49\nsamples = 107\nvalue = [78, 103]\nclass = blueWin", fillcolor="#cfe7f9"] ;
311 -> 313 ;
314 [label="blueWardsPlaced <= 15.5\ngini = 0.47\nsamples = 88\nvalue = [57, 94]\nclass = blueWin", fillcolor="#b1d8f5"] ;
313 -> 314 ;
315 [label="redWardsDestroyed <= 3.5\ngini = 0.35\nsamples = 20\nvalue = [8, 28]\nclass = blueWin", fillcolor="#72b9ec"] ;
314 -> 315 ;
316 [label="blueTotalMinionsKilled <= 199.0\ngini = 0.44\nsamples = 17\nvalue = [8, 17]\nclass = blueWin", fillcolor="#96cbf1"] ;
315 -> 316 ;
317 [label="blueWardsPlaced <= 14.5\ngini = 0.5\nsamples = 9\nvalue = [7, 6]\nclass = blueLose", fillcolor="#fbede3"] ;
316 -> 317 ;
318 [label="redWardsDestroyed <= 0.5\ngini = 0.24\nsamples = 5\nvalue = [1, 6]\nclass = blueWin", fillcolor="#5aade9"] ;
317 -> 318 ;
319 [label="gini = 0.0\nsamples = 1\nvalue = [1, 0]\nclass = blueLose", fillcolor="#e58139"] ;
318 -> 319 ;
320 [label="gini = 0.0\nsamples = 4\nvalue = [0, 6]\nclass = blueWin", fillcolor="#399de5"] ;
318 -> 320 ;
321 [label="gini = 0.0\nsamples = 4\nvalue = [6, 0]\nclass = blueLose", fillcolor="#e58139"] ;
317 -> 321 ;
322 [label="blueGoldDiff <= -824.5\ngini = 0.15\nsamples = 8\nvalue = [1, 11]\nclass = blueWin", fillcolor="#4ba6e7"] ;
316 -> 322 ;
323 [label="gini = 0.0\nsamples = 1\nvalue = [1, 0]\nclass = blueLose", fillcolor="#e58139"] ;
322 -> 323 ;
324 [label="gini = 0.0\nsamples = 7\nvalue = [0, 11]\nclass = blueWin", fillcolor="#399de5"] ;
322 -> 324 ;
325 [label="gini = 0.0\nsamples = 3\nvalue = [0, 11]\nclass = blueWin", fillcolor="#399de5"] ;
315 -> 325 ;
326 [label="blueGoldDiff <= -456.5\ngini = 0.49\nsamples = 68\nvalue = [49, 66]\nclass = blueWin", fillcolor="#cce6f8"] ;
314 -> 326 ;
327 [label="blueWardsDestroyed <= 3.5\ngini = 0.42\nsamples = 33\nvalue = [18, 42]\nclass = blueWin", fillcolor="#8ec7f0"] ;
326 -> 327 ;
328 [label="redTotalJungleMinionsKilled <= 50.5\ngini = 0.34\nsamples = 23\nvalue = [10, 36]\nclass = blueWin", fillcolor="#70b8ec"] ;
327 -> 328 ;
329 [label="blueTotalMinionsKilled <= 189.5\ngini = 0.27\nsamples = 21\nvalue = [7, 36]\nclass = blueWin", fillcolor="#5fb0ea"] ;
328 -> 329 ;
330 [label="gini = 0.0\nsamples = 1\nvalue = [1, 0]\nclass = blueLose", fillcolor="#e58139"] ;
329 -> 330 ;
331 [label="blueTotalJungleMinionsKilled <= 42.0\ngini = 0.24\nsamples = 20\nvalue = [6, 36]\nclass = blueWin", fillcolor="#5aade9"] ;
329 -> 331 ;
332 [label="redWardsPlaced <= 13.0\ngini = 0.5\nsamples = 4\nvalue = [2, 2]\nclass = blueLose", fillcolor="#ffffff"] ;
331 -> 332 ;
333 [label="gini = 0.0\nsamples = 1\nvalue = [1, 0]\nclass = blueLose", fillcolor="#e58139"] ;
332 -> 333 ;
334 [label="redTotalJungleMinionsKilled <= 42.0\ngini = 0.44\nsamples = 3\nvalue = [1, 2]\nclass = blueWin", fillcolor="#9ccef2"] ;
332 -> 334 ;
335 [label="gini = 0.0\nsamples = 2\nvalue = [0, 2]\nclass = blueWin", fillcolor="#399de5"] ;
334 -> 335 ;
336 [label="gini = 0.0\nsamples = 1\nvalue = [1, 0]\nclass = blueLose", fillcolor="#e58139"] ;
334 -> 336 ;
337 [label="blueWardsPlaced <= 19.0\ngini = 0.19\nsamples = 16\nvalue = [4, 34]\nclass = blueWin", fillcolor="#50a9e8"] ;
331 -> 337 ;
338 [label="blueTotalJungleMinionsKilled <= 52.5\ngini = 0.32\nsamples = 9\nvalue = [4, 16]\nclass = blueWin", fillcolor="#6ab6ec"] ;
337 -> 338 ;
339 [label="blueTotalMinionsKilled <= 212.5\ngini = 0.27\nsamples = 8\nvalue = [3, 16]\nclass = blueWin", fillcolor="#5eafea"] ;
338 -> 339 ;
340 [label="blueGoldDiff <= -1375.5\ngini = 0.11\nsamples = 7\nvalue = [1, 16]\nclass = blueWin", fillcolor="#45a3e7"] ;
339 -> 340 ;
341 [label="redTotalJungleMinionsKilled <= 41.5\ngini = 0.38\nsamples = 2\nvalue = [1, 3]\nclass = blueWin", fillcolor="#7bbeee"] ;
340 -> 341 ;
342 [label="gini = 0.0\nsamples = 1\nvalue = [1, 0]\nclass = blueLose", fillcolor="#e58139"] ;
341 -> 342 ;
343 [label="gini = 0.0\nsamples = 1\nvalue = [0, 3]\nclass = blueWin", fillcolor="#399de5"] ;
341 -> 343 ;
344 [label="gini = 0.0\nsamples = 5\nvalue = [0, 13]\nclass = blueWin", fillcolor="#399de5"] ;
340 -> 344 ;
345 [label="gini = 0.0\nsamples = 1\nvalue = [2, 0]\nclass = blueLose", fillcolor="#e58139"] ;
339 -> 345 ;
346 [label="gini = 0.0\nsamples = 1\nvalue = [1, 0]\nclass = blueLose", fillcolor="#e58139"] ;
338 -> 346 ;
347 [label="gini = 0.0\nsamples = 7\nvalue = [0, 18]\nclass = blueWin", fillcolor="#399de5"] ;
337 -> 347 ;
348 [label="gini = 0.0\nsamples = 2\nvalue = [3, 0]\nclass = blueLose", fillcolor="#e58139"] ;
328 -> 348 ;
349 [label="redTotalMinionsKilled <= 207.0\ngini = 0.49\nsamples = 10\nvalue = [8, 6]\nclass = blueLose", fillcolor="#f8e0ce"] ;
327 -> 349 ;
350 [label="redTotalMinionsKilled <= 197.5\ngini = 0.48\nsamples = 8\nvalue = [4, 6]\nclass = blueWin", fillcolor="#bddef6"] ;
349 -> 350 ;
351 [label="blueGoldDiff <= -531.0\ngini = 0.32\nsamples = 4\nvalue = [4, 1]\nclass = blueLose", fillcolor="#eca06a"] ;
350 -> 351 ;
352 [label="gini = 0.0\nsamples = 2\nvalue = [3, 0]\nclass = blueLose", fillcolor="#e58139"] ;
351 -> 352 ;
353 [label="blueWardsPlaced <= 30.0\ngini = 0.5\nsamples = 2\nvalue = [1, 1]\nclass = blueLose", fillcolor="#ffffff"] ;
351 -> 353 ;
354 [label="gini = 0.0\nsamples = 1\nvalue = [0, 1]\nclass = blueWin", fillcolor="#399de5"] ;
353 -> 354 ;
355 [label="gini = 0.0\nsamples = 1\nvalue = [1, 0]\nclass = blueLose", fillcolor="#e58139"] ;
353 -> 355 ;
356 [label="gini = 0.0\nsamples = 4\nvalue = [0, 5]\nclass = blueWin", fillcolor="#399de5"] ;
350 -> 356 ;
357 [label="gini = 0.0\nsamples = 2\nvalue = [4, 0]\nclass = blueLose", fillcolor="#e58139"] ;
349 -> 357 ;
358 [label="blueGoldDiff <= 575.5\ngini = 0.49\nsamples = 35\nvalue = [31, 24]\nclass = blueLose", fillcolor="#f9e3d2"] ;
326 -> 358 ;
359 [label="blueWardsPlaced <= 16.5\ngini = 0.5\nsamples = 32\nvalue = [26, 24]\nclass = blueLose", fillcolor="#fdf5f0"] ;
358 -> 359 ;
360 [label="gini = 0.0\nsamples = 2\nvalue = [0, 3]\nclass = blueWin", fillcolor="#399de5"] ;
359 -> 360 ;
361 [label="redTotalJungleMinionsKilled <= 39.0\ngini = 0.49\nsamples = 30\nvalue = [26, 21]\nclass = blueLose", fillcolor="#fae7d9"] ;
359 -> 361 ;
362 [label="redWardsPlaced <= 12.5\ngini = 0.38\nsamples = 4\nvalue = [2, 6]\nclass = blueWin", fillcolor="#7bbeee"] ;
361 -> 362 ;
363 [label="gini = 0.0\nsamples = 1\nvalue = [2, 0]\nclass = blueLose", fillcolor="#e58139"] ;
362 -> 363 ;
364 [label="gini = 0.0\nsamples = 3\nvalue = [0, 6]\nclass = blueWin", fillcolor="#399de5"] ;
362 -> 364 ;
365 [label="blueWardsPlaced <= 24.5\ngini = 0.47\nsamples = 26\nvalue = [24, 15]\nclass = blueLose", fillcolor="#f5d0b5"] ;
361 -> 365 ;
366 [label="blueTotalMinionsKilled <= 198.5\ngini = 0.5\nsamples = 15\nvalue = [11, 12]\nclass = blueWin", fillcolor="#eff7fd"] ;
365 -> 366 ;
367 [label="gini = 0.0\nsamples = 6\nvalue = [8, 0]\nclass = blueLose", fillcolor="#e58139"] ;
366 -> 367 ;
368 [label="blueTotalJungleMinionsKilled <= 52.5\ngini = 0.32\nsamples = 9\nvalue = [3, 12]\nclass = blueWin", fillcolor="#6ab6ec"] ;
366 -> 368 ;
369 [label="blueTotalMinionsKilled <= 206.0\ngini = 0.4\nsamples = 7\nvalue = [3, 8]\nclass = blueWin", fillcolor="#83c2ef"] ;
368 -> 369 ;
370 [label="blueGoldDiff <= 18.5\ngini = 0.5\nsamples = 5\nvalue = [3, 3]\nclass = blueLose", fillcolor="#ffffff"] ;
369 -> 370 ;
371 [label="gini = 0.0\nsamples = 3\nvalue = [3, 0]\nclass = blueLose", fillcolor="#e58139"] ;
370 -> 371 ;
372 [label="gini = 0.0\nsamples = 2\nvalue = [0, 3]\nclass = blueWin", fillcolor="#399de5"] ;
370 -> 372 ;
373 [label="gini = 0.0\nsamples = 2\nvalue = [0, 5]\nclass = blueWin", fillcolor="#399de5"] ;
369 -> 373 ;
374 [label="gini = 0.0\nsamples = 2\nvalue = [0, 4]\nclass = blueWin", fillcolor="#399de5"] ;
368 -> 374 ;
375 [label="blueTotalMinionsKilled <= 213.0\ngini = 0.3\nsamples = 11\nvalue = [13, 3]\nclass = blueLose", fillcolor="#eb9e67"] ;
365 -> 375 ;
376 [label="blueTotalJungleMinionsKilled <= 42.5\ngini = 0.23\nsamples = 10\nvalue = [13, 2]\nclass = blueLose", fillcolor="#e99457"] ;
375 -> 376 ;
377 [label="gini = 0.0\nsamples = 1\nvalue = [0, 2]\nclass = blueWin", fillcolor="#399de5"] ;
376 -> 377 ;
378 [label="gini = 0.0\nsamples = 9\nvalue = [13, 0]\nclass = blueLose", fillcolor="#e58139"] ;
376 -> 378 ;
379 [label="gini = 0.0\nsamples = 1\nvalue = [0, 1]\nclass = blueWin", fillcolor="#399de5"] ;
375 -> 379 ;
380 [label="gini = 0.0\nsamples = 3\nvalue = [5, 0]\nclass = blueLose", fillcolor="#e58139"] ;
358 -> 380 ;
381 [label="blueGoldDiff <= 152.5\ngini = 0.42\nsamples = 19\nvalue = [21, 9]\nclass = blueLose", fillcolor="#f0b78e"] ;
313 -> 381 ;
382 [label="redTotalJungleMinionsKilled <= 50.5\ngini = 0.28\nsamples = 13\nvalue = [20, 4]\nclass = blueLose", fillcolor="#ea9a61"] ;
381 -> 382 ;
383 [label="redTotalMinionsKilled <= 205.5\ngini = 0.23\nsamples = 12\nvalue = [20, 3]\nclass = blueLose", fillcolor="#e99457"] ;
382 -> 383 ;
384 [label="blueGoldDiff <= -172.5\ngini = 0.5\nsamples = 4\nvalue = [3, 3]\nclass = blueLose", fillcolor="#ffffff"] ;
383 -> 384 ;
385 [label="redTotalMinionsKilled <= 201.5\ngini = 0.38\nsamples = 3\nvalue = [1, 3]\nclass = blueWin", fillcolor="#7bbeee"] ;
384 -> 385 ;
386 [label="gini = 0.0\nsamples = 1\nvalue = [1, 0]\nclass = blueLose", fillcolor="#e58139"] ;
385 -> 386 ;
387 [label="gini = 0.0\nsamples = 2\nvalue = [0, 3]\nclass = blueWin", fillcolor="#399de5"] ;
385 -> 387 ;
388 [label="gini = 0.0\nsamples = 1\nvalue = [2, 0]\nclass = blueLose", fillcolor="#e58139"] ;
384 -> 388 ;
389 [label="gini = 0.0\nsamples = 8\nvalue = [17, 0]\nclass = blueLose", fillcolor="#e58139"] ;
383 -> 389 ;
390 [label="gini = 0.0\nsamples = 1\nvalue = [0, 1]\nclass = blueWin", fillcolor="#399de5"] ;
382 -> 390 ;
391 [label="blueWardsDestroyed <= 1.5\ngini = 0.28\nsamples = 6\nvalue = [1, 5]\nclass = blueWin", fillcolor="#61b1ea"] ;
381 -> 391 ;
392 [label="redWardsPlaced <= 15.5\ngini = 0.5\nsamples = 2\nvalue = [1, 1]\nclass = blueLose", fillcolor="#ffffff"] ;
391 -> 392 ;
393 [label="gini = 0.0\nsamples = 1\nvalue = [0, 1]\nclass = blueWin", fillcolor="#399de5"] ;
392 -> 393 ;
394 [label="gini = 0.0\nsamples = 1\nvalue = [1, 0]\nclass = blueLose", fillcolor="#e58139"] ;
392 -> 394 ;
395 [label="gini = 0.0\nsamples = 4\nvalue = [0, 4]\nclass = blueWin", fillcolor="#399de5"] ;
391 -> 395 ;
396 [label="blueTotalJungleMinionsKilled <= 56.5\ngini = 0.31\nsamples = 174\nvalue = [53, 219]\nclass = blueWin", fillcolor="#69b5eb"] ;
282 -> 396 ;
397 [label="redTotalMinionsKilled <= 160.5\ngini = 0.36\nsamples = 128\nvalue = [48, 153]\nclass = blueWin", fillcolor="#77bced"] ;
396 -> 397 ;
398 [label="gini = 0.0\nsamples = 2\nvalue = [5, 0]\nclass = blueLose", fillcolor="#e58139"] ;
397 -> 398 ;
399 [label="blueTotalJungleMinionsKilled <= 42.5\ngini = 0.34\nsamples = 126\nvalue = [43, 153]\nclass = blueWin", fillcolor="#71b9ec"] ;
397 -> 399 ;
400 [label="redTotalMinionsKilled <= 170.5\ngini = 0.15\nsamples = 23\nvalue = [3, 33]\nclass = blueWin", fillcolor="#4ba6e7"] ;
399 -> 400 ;
401 [label="gini = 0.0\nsamples = 1\nvalue = [1, 0]\nclass = blueLose", fillcolor="#e58139"] ;
400 -> 401 ;
402 [label="blueTotalMinionsKilled <= 197.5\ngini = 0.11\nsamples = 22\nvalue = [2, 33]\nclass = blueWin", fillcolor="#45a3e7"] ;
400 -> 402 ;
403 [label="gini = 0.0\nsamples = 10\nvalue = [0, 18]\nclass = blueWin", fillcolor="#399de5"] ;
402 -> 403 ;
404 [label="blueGoldDiff <= 1576.0\ngini = 0.21\nsamples = 12\nvalue = [2, 15]\nclass = blueWin", fillcolor="#53aae8"] ;
402 -> 404 ;
405 [label="redWardsDestroyed <= 2.5\ngini = 0.48\nsamples = 5\nvalue = [2, 3]\nclass = blueWin", fillcolor="#bddef6"] ;
404 -> 405 ;
406 [label="gini = 0.0\nsamples = 3\nvalue = [0, 3]\nclass = blueWin", fillcolor="#399de5"] ;
405 -> 406 ;
407 [label="gini = 0.0\nsamples = 2\nvalue = [2, 0]\nclass = blueLose", fillcolor="#e58139"] ;
405 -> 407 ;
408 [label="gini = 0.0\nsamples = 7\nvalue = [0, 12]\nclass = blueWin", fillcolor="#399de5"] ;
404 -> 408 ;
409 [label="redTotalJungleMinionsKilled <= 44.5\ngini = 0.38\nsamples = 103\nvalue = [40, 120]\nclass = blueWin", fillcolor="#7bbeee"] ;
399 -> 409 ;
410 [label="blueWardsPlaced <= 23.0\ngini = 0.43\nsamples = 64\nvalue = [31, 69]\nclass = blueWin", fillcolor="#92c9f1"] ;
409 -> 410 ;
411 [label="redWardsPlaced <= 11.5\ngini = 0.28\nsamples = 43\nvalue = [11, 54]\nclass = blueWin", fillcolor="#61b1ea"] ;
410 -> 411 ;
412 [label="blueTotalMinionsKilled <= 190.5\ngini = 0.44\nsamples = 2\nvalue = [2, 1]\nclass = blueLose", fillcolor="#f2c09c"] ;
411 -> 412 ;
413 [label="gini = 0.0\nsamples = 1\nvalue = [2, 0]\nclass = blueLose", fillcolor="#e58139"] ;
412 -> 413 ;
414 [label="gini = 0.0\nsamples = 1\nvalue = [0, 1]\nclass = blueWin", fillcolor="#399de5"] ;
412 -> 414 ;
415 [label="blueTotalMinionsKilled <= 204.5\ngini = 0.25\nsamples = 41\nvalue = [9, 53]\nclass = blueWin", fillcolor="#5baee9"] ;
411 -> 415 ;
416 [label="redTotalJungleMinionsKilled <= 39.5\ngini = 0.36\nsamples = 16\nvalue = [5, 16]\nclass = blueWin", fillcolor="#77bced"] ;
415 -> 416 ;
417 [label="gini = 0.0\nsamples = 10\nvalue = [0, 14]\nclass = blueWin", fillcolor="#399de5"] ;
416 -> 417 ;
418 [label="blueTotalMinionsKilled <= 201.5\ngini = 0.41\nsamples = 6\nvalue = [5, 2]\nclass = blueLose", fillcolor="#efb388"] ;
416 -> 418 ;
419 [label="gini = 0.0\nsamples = 2\nvalue = [0, 2]\nclass = blueWin", fillcolor="#399de5"] ;
418 -> 419 ;
420 [label="gini = 0.0\nsamples = 4\nvalue = [5, 0]\nclass = blueLose", fillcolor="#e58139"] ;
418 -> 420 ;
421 [label="blueWardsPlaced <= 15.5\ngini = 0.18\nsamples = 25\nvalue = [4, 37]\nclass = blueWin", fillcolor="#4ea8e8"] ;
415 -> 421 ;
422 [label="redTotalMinionsKilled <= 178.5\ngini = 0.26\nsamples = 10\nvalue = [3, 17]\nclass = blueWin", fillcolor="#5caeea"] ;
421 -> 422 ;
423 [label="gini = 0.0\nsamples = 1\nvalue = [2, 0]\nclass = blueLose", fillcolor="#e58139"] ;
422 -> 423 ;
424 [label="redTotalJungleMinionsKilled <= 35.5\ngini = 0.1\nsamples = 9\nvalue = [1, 17]\nclass = blueWin", fillcolor="#45a3e7"] ;
422 -> 424 ;
425 [label="redTotalMinionsKilled <= 206.5\ngini = 0.5\nsamples = 2\nvalue = [1, 1]\nclass = blueLose", fillcolor="#ffffff"] ;
424 -> 425 ;
426 [label="gini = 0.0\nsamples = 1\nvalue = [0, 1]\nclass = blueWin", fillcolor="#399de5"] ;
425 -> 426 ;
427 [label="gini = 0.0\nsamples = 1\nvalue = [1, 0]\nclass = blueLose", fillcolor="#e58139"] ;
425 -> 427 ;
428 [label="gini = 0.0\nsamples = 7\nvalue = [0, 16]\nclass = blueWin", fillcolor="#399de5"] ;
424 -> 428 ;
429 [label="redWardsDestroyed <= 3.5\ngini = 0.09\nsamples = 15\nvalue = [1, 20]\nclass = blueWin", fillcolor="#43a2e6"] ;
421 -> 429 ;
430 [label="gini = 0.0\nsamples = 12\nvalue = [0, 17]\nclass = blueWin", fillcolor="#399de5"] ;
429 -> 430 ;
431 [label="blueWardsPlaced <= 19.5\ngini = 0.38\nsamples = 3\nvalue = [1, 3]\nclass = blueWin", fillcolor="#7bbeee"] ;
429 -> 431 ;
432 [label="gini = 0.0\nsamples = 2\nvalue = [0, 3]\nclass = blueWin", fillcolor="#399de5"] ;
431 -> 432 ;
433 [label="gini = 0.0\nsamples = 1\nvalue = [1, 0]\nclass = blueLose", fillcolor="#e58139"] ;
431 -> 433 ;
434 [label="blueWardsPlaced <= 67.5\ngini = 0.49\nsamples = 21\nvalue = [20, 15]\nclass = blueLose", fillcolor="#f8e0ce"] ;
410 -> 434 ;
435 [label="redWardsPlaced <= 13.5\ngini = 0.4\nsamples = 15\nvalue = [18, 7]\nclass = blueLose", fillcolor="#efb286"] ;
434 -> 435 ;
436 [label="gini = 0.0\nsamples = 2\nvalue = [0, 3]\nclass = blueWin", fillcolor="#399de5"] ;
435 -> 436 ;
437 [label="blueWardsPlaced <= 35.5\ngini = 0.3\nsamples = 13\nvalue = [18, 4]\nclass = blueLose", fillcolor="#eb9d65"] ;
435 -> 437 ;
438 [label="blueTotalMinionsKilled <= 205.0\ngini = 0.43\nsamples = 8\nvalue = [9, 4]\nclass = blueLose", fillcolor="#f1b991"] ;
437 -> 438 ;
439 [label="blueTotalMinionsKilled <= 196.5\ngini = 0.44\nsamples = 5\nvalue = [2, 4]\nclass = blueWin", fillcolor="#9ccef2"] ;
438 -> 439 ;
440 [label="blueGoldDiff <= 1728.5\ngini = 0.44\nsamples = 2\nvalue = [2, 1]\nclass = blueLose", fillcolor="#f2c09c"] ;
439 -> 440 ;
441 [label="gini = 0.0\nsamples = 1\nvalue = [2, 0]\nclass = blueLose", fillcolor="#e58139"] ;
440 -> 441 ;
442 [label="gini = 0.0\nsamples = 1\nvalue = [0, 1]\nclass = blueWin", fillcolor="#399de5"] ;
440 -> 442 ;
443 [label="gini = 0.0\nsamples = 3\nvalue = [0, 3]\nclass = blueWin", fillcolor="#399de5"] ;
439 -> 443 ;
444 [label="gini = 0.0\nsamples = 3\nvalue = [7, 0]\nclass = blueLose", fillcolor="#e58139"] ;
438 -> 444 ;
445 [label="gini = 0.0\nsamples = 5\nvalue = [9, 0]\nclass = blueLose", fillcolor="#e58139"] ;
437 -> 445 ;
446 [label="blueTotalMinionsKilled <= 198.5\ngini = 0.32\nsamples = 6\nvalue = [2, 8]\nclass = blueWin", fillcolor="#6ab6ec"] ;
434 -> 446 ;
447 [label="redTotalMinionsKilled <= 195.0\ngini = 0.44\nsamples = 2\nvalue = [2, 1]\nclass = blueLose", fillcolor="#f2c09c"] ;
446 -> 447 ;
448 [label="gini = 0.0\nsamples = 1\nvalue = [2, 0]\nclass = blueLose", fillcolor="#e58139"] ;
447 -> 448 ;
449 [label="gini = 0.0\nsamples = 1\nvalue = [0, 1]\nclass = blueWin", fillcolor="#399de5"] ;
447 -> 449 ;
450 [label="gini = 0.0\nsamples = 4\nvalue = [0, 7]\nclass = blueWin", fillcolor="#399de5"] ;
446 -> 450 ;
451 [label="blueGoldDiff <= 1510.0\ngini = 0.26\nsamples = 39\nvalue = [9, 51]\nclass = blueWin", fillcolor="#5caeea"] ;
409 -> 451 ;
452 [label="gini = 0.0\nsamples = 15\nvalue = [0, 28]\nclass = blueWin", fillcolor="#399de5"] ;
451 -> 452 ;
453 [label="redTotalJungleMinionsKilled <= 50.5\ngini = 0.4\nsamples = 24\nvalue = [9, 23]\nclass = blueWin", fillcolor="#86c3ef"] ;
451 -> 453 ;
454 [label="blueGoldDiff <= 2019.0\ngini = 0.43\nsamples = 21\nvalue = [9, 20]\nclass = blueWin", fillcolor="#92c9f1"] ;
453 -> 454 ;
455 [label="redTotalMinionsKilled <= 180.5\ngini = 0.47\nsamples = 6\nvalue = [5, 3]\nclass = blueLose", fillcolor="#f5cdb0"] ;
454 -> 455 ;
456 [label="gini = 0.0\nsamples = 2\nvalue = [3, 0]\nclass = blueLose", fillcolor="#e58139"] ;
455 -> 456 ;
457 [label="blueTotalJungleMinionsKilled <= 50.5\ngini = 0.48\nsamples = 4\nvalue = [2, 3]\nclass = blueWin", fillcolor="#bddef6"] ;
455 -> 457 ;
458 [label="gini = 0.0\nsamples = 1\nvalue = [1, 0]\nclass = blueLose", fillcolor="#e58139"] ;
457 -> 458 ;
459 [label="redWardsPlaced <= 38.0\ngini = 0.38\nsamples = 3\nvalue = [1, 3]\nclass = blueWin", fillcolor="#7bbeee"] ;
457 -> 459 ;
460 [label="gini = 0.0\nsamples = 2\nvalue = [0, 3]\nclass = blueWin", fillcolor="#399de5"] ;
459 -> 460 ;
461 [label="gini = 0.0\nsamples = 1\nvalue = [1, 0]\nclass = blueLose", fillcolor="#e58139"] ;
459 -> 461 ;
462 [label="redTotalJungleMinionsKilled <= 49.0\ngini = 0.31\nsamples = 15\nvalue = [4, 17]\nclass = blueWin", fillcolor="#68b4eb"] ;
454 -> 462 ;
463 [label="blueTotalMinionsKilled <= 205.5\ngini = 0.19\nsamples = 14\nvalue = [2, 17]\nclass = blueWin", fillcolor="#50a9e8"] ;
462 -> 463 ;
464 [label="redWardsDestroyed <= 1.5\ngini = 0.35\nsamples = 7\nvalue = [2, 7]\nclass = blueWin", fillcolor="#72b9ec"] ;
463 -> 464 ;
465 [label="gini = 0.0\nsamples = 1\nvalue = [1, 0]\nclass = blueLose", fillcolor="#e58139"] ;
464 -> 465 ;
466 [label="blueWardsDestroyed <= 3.5\ngini = 0.22\nsamples = 6\nvalue = [1, 7]\nclass = blueWin", fillcolor="#55abe9"] ;
464 -> 466 ;
467 [label="gini = 0.0\nsamples = 5\nvalue = [0, 7]\nclass = blueWin", fillcolor="#399de5"] ;
466 -> 467 ;
468 [label="gini = 0.0\nsamples = 1\nvalue = [1, 0]\nclass = blueLose", fillcolor="#e58139"] ;
466 -> 468 ;
469 [label="gini = 0.0\nsamples = 7\nvalue = [0, 10]\nclass = blueWin", fillcolor="#399de5"] ;
463 -> 469 ;
470 [label="gini = 0.0\nsamples = 1\nvalue = [2, 0]\nclass = blueLose", fillcolor="#e58139"] ;
462 -> 470 ;
471 [label="gini = 0.0\nsamples = 3\nvalue = [0, 3]\nclass = blueWin", fillcolor="#399de5"] ;
453 -> 471 ;
472 [label="blueGoldDiff <= 4939.5\ngini = 0.13\nsamples = 46\nvalue = [5, 66]\nclass = blueWin", fillcolor="#48a4e7"] ;
396 -> 472 ;
473 [label="redTotalJungleMinionsKilled <= 50.0\ngini = 0.11\nsamples = 45\nvalue = [4, 66]\nclass = blueWin", fillcolor="#45a3e7"] ;
472 -> 473 ;
474 [label="redWardsDestroyed <= 1.5\ngini = 0.09\nsamples = 41\nvalue = [3, 63]\nclass = blueWin", fillcolor="#42a2e6"] ;
473 -> 474 ;
475 [label="blueGoldDiff <= 3863.0\ngini = 0.21\nsamples = 12\nvalue = [2, 15]\nclass = blueWin", fillcolor="#53aae8"] ;
474 -> 475 ;
476 [label="blueTotalMinionsKilled <= 193.5\ngini = 0.12\nsamples = 11\nvalue = [1, 15]\nclass = blueWin", fillcolor="#46a4e7"] ;
475 -> 476 ;
477 [label="blueTotalJungleMinionsKilled <= 60.5\ngini = 0.38\nsamples = 3\nvalue = [1, 3]\nclass = blueWin", fillcolor="#7bbeee"] ;
476 -> 477 ;
478 [label="gini = 0.0\nsamples = 2\nvalue = [0, 3]\nclass = blueWin", fillcolor="#399de5"] ;
477 -> 478 ;
479 [label="gini = 0.0\nsamples = 1\nvalue = [1, 0]\nclass = blueLose", fillcolor="#e58139"] ;
477 -> 479 ;
480 [label="gini = 0.0\nsamples = 8\nvalue = [0, 12]\nclass = blueWin", fillcolor="#399de5"] ;
476 -> 480 ;
481 [label="gini = 0.0\nsamples = 1\nvalue = [1, 0]\nclass = blueLose", fillcolor="#e58139"] ;
475 -> 481 ;
482 [label="redWardsDestroyed <= 3.5\ngini = 0.04\nsamples = 29\nvalue = [1, 48]\nclass = blueWin", fillcolor="#3d9fe6"] ;
474 -> 482 ;
483 [label="gini = 0.0\nsamples = 24\nvalue = [0, 43]\nclass = blueWin", fillcolor="#399de5"] ;
482 -> 483 ;
484 [label="blueTotalMinionsKilled <= 205.5\ngini = 0.28\nsamples = 5\nvalue = [1, 5]\nclass = blueWin", fillcolor="#61b1ea"] ;
482 -> 484 ;
485 [label="gini = 0.0\nsamples = 3\nvalue = [0, 4]\nclass = blueWin", fillcolor="#399de5"] ;
484 -> 485 ;
486 [label="redTotalJungleMinionsKilled <= 34.0\ngini = 0.5\nsamples = 2\nvalue = [1, 1]\nclass = blueLose", fillcolor="#ffffff"] ;
484 -> 486 ;
487 [label="gini = 0.0\nsamples = 1\nvalue = [1, 0]\nclass = blueLose", fillcolor="#e58139"] ;
486 -> 487 ;
488 [label="gini = 0.0\nsamples = 1\nvalue = [0, 1]\nclass = blueWin", fillcolor="#399de5"] ;
486 -> 488 ;
489 [label="blueWardsPlaced <= 29.5\ngini = 0.38\nsamples = 4\nvalue = [1, 3]\nclass = blueWin", fillcolor="#7bbeee"] ;
473 -> 489 ;
490 [label="blueWardsPlaced <= 18.5\ngini = 0.5\nsamples = 2\nvalue = [1, 1]\nclass = blueLose", fillcolor="#ffffff"] ;
489 -> 490 ;
491 [label="gini = 0.0\nsamples = 1\nvalue = [0, 1]\nclass = blueWin", fillcolor="#399de5"] ;
490 -> 491 ;
492 [label="gini = 0.0\nsamples = 1\nvalue = [1, 0]\nclass = blueLose", fillcolor="#e58139"] ;
490 -> 492 ;
493 [label="gini = 0.0\nsamples = 2\nvalue = [0, 2]\nclass = blueWin", fillcolor="#399de5"] ;
489 -> 493 ;
494 [label="gini = 0.0\nsamples = 1\nvalue = [1, 0]\nclass = blueLose", fillcolor="#e58139"] ;
472 -> 494 ;
495 [label="redTotalMinionsKilled <= 203.5\ngini = 0.5\nsamples = 39\nvalue = [29, 26]\nclass = blueLose", fillcolor="#fcf2eb"] ;
281 -> 495 ;
496 [label="redTotalJungleMinionsKilled <= 35.0\ngini = 0.46\nsamples = 21\nvalue = [11, 20]\nclass = blueWin", fillcolor="#a6d3f3"] ;
495 -> 496 ;
497 [label="redTotalJungleMinionsKilled <= 33.5\ngini = 0.32\nsamples = 3\nvalue = [4, 1]\nclass = blueLose", fillcolor="#eca06a"] ;
496 -> 497 ;
498 [label="gini = 0.0\nsamples = 1\nvalue = [0, 1]\nclass = blueWin", fillcolor="#399de5"] ;
497 -> 498 ;
499 [label="gini = 0.0\nsamples = 2\nvalue = [4, 0]\nclass = blueLose", fillcolor="#e58139"] ;
497 -> 499 ;
500 [label="blueGoldDiff <= 696.0\ngini = 0.39\nsamples = 18\nvalue = [7, 19]\nclass = blueWin", fillcolor="#82c1ef"] ;
496 -> 500 ;
501 [label="blueWardsPlaced <= 20.5\ngini = 0.5\nsamples = 10\nvalue = [7, 7]\nclass = blueLose", fillcolor="#ffffff"] ;
500 -> 501 ;
502 [label="redWardsPlaced <= 35.5\ngini = 0.42\nsamples = 7\nvalue = [7, 3]\nclass = blueLose", fillcolor="#f0b78e"] ;
501 -> 502 ;
503 [label="blueTotalJungleMinionsKilled <= 61.5\ngini = 0.5\nsamples = 5\nvalue = [3, 3]\nclass = blueLose", fillcolor="#ffffff"] ;
502 -> 503 ;
504 [label="redTotalMinionsKilled <= 192.5\ngini = 0.38\nsamples = 4\nvalue = [1, 3]\nclass = blueWin", fillcolor="#7bbeee"] ;
503 -> 504 ;
505 [label="blueGoldDiff <= 129.5\ngini = 0.5\nsamples = 2\nvalue = [1, 1]\nclass = blueLose", fillcolor="#ffffff"] ;
504 -> 505 ;
506 [label="gini = 0.0\nsamples = 1\nvalue = [0, 1]\nclass = blueWin", fillcolor="#399de5"] ;
505 -> 506 ;
507 [label="gini = 0.0\nsamples = 1\nvalue = [1, 0]\nclass = blueLose", fillcolor="#e58139"] ;
505 -> 507 ;
508 [label="gini = 0.0\nsamples = 2\nvalue = [0, 2]\nclass = blueWin", fillcolor="#399de5"] ;
504 -> 508 ;
509 [label="gini = 0.0\nsamples = 1\nvalue = [2, 0]\nclass = blueLose", fillcolor="#e58139"] ;
503 -> 509 ;
510 [label="gini = 0.0\nsamples = 2\nvalue = [4, 0]\nclass = blueLose", fillcolor="#e58139"] ;
502 -> 510 ;
511 [label="gini = 0.0\nsamples = 3\nvalue = [0, 4]\nclass = blueWin", fillcolor="#399de5"] ;
501 -> 511 ;
512 [label="gini = 0.0\nsamples = 8\nvalue = [0, 12]\nclass = blueWin", fillcolor="#399de5"] ;
500 -> 512 ;
513 [label="redWardsDestroyed <= 5.5\ngini = 0.38\nsamples = 18\nvalue = [18, 6]\nclass = blueLose", fillcolor="#eeab7b"] ;
495 -> 513 ;
514 [label="redTotalJungleMinionsKilled <= 38.0\ngini = 0.43\nsamples = 14\nvalue = [13, 6]\nclass = blueLose", fillcolor="#f1bb94"] ;
513 -> 514 ;
515 [label="blueGoldDiff <= -373.0\ngini = 0.49\nsamples = 4\nvalue = [3, 4]\nclass = blueWin", fillcolor="#cee6f8"] ;
514 -> 515 ;
516 [label="gini = 0.0\nsamples = 1\nvalue = [3, 0]\nclass = blueLose", fillcolor="#e58139"] ;
515 -> 516 ;
517 [label="gini = 0.0\nsamples = 3\nvalue = [0, 4]\nclass = blueWin", fillcolor="#399de5"] ;
515 -> 517 ;
518 [label="blueGoldDiff <= 1040.0\ngini = 0.28\nsamples = 10\nvalue = [10, 2]\nclass = blueLose", fillcolor="#ea9a61"] ;
514 -> 518 ;
519 [label="blueGoldDiff <= -464.5\ngini = 0.17\nsamples = 9\nvalue = [10, 1]\nclass = blueLose", fillcolor="#e88e4d"] ;
518 -> 519 ;
520 [label="blueTotalMinionsKilled <= 196.0\ngini = 0.32\nsamples = 4\nvalue = [4, 1]\nclass = blueLose", fillcolor="#eca06a"] ;
519 -> 520 ;
521 [label="gini = 0.0\nsamples = 1\nvalue = [0, 1]\nclass = blueWin", fillcolor="#399de5"] ;
520 -> 521 ;
522 [label="gini = 0.0\nsamples = 3\nvalue = [4, 0]\nclass = blueLose", fillcolor="#e58139"] ;
520 -> 522 ;
523 [label="gini = 0.0\nsamples = 5\nvalue = [6, 0]\nclass = blueLose", fillcolor="#e58139"] ;
519 -> 523 ;
524 [label="gini = 0.0\nsamples = 1\nvalue = [0, 1]\nclass = blueWin", fillcolor="#399de5"] ;
518 -> 524 ;
525 [label="gini = 0.0\nsamples = 4\nvalue = [5, 0]\nclass = blueLose", fillcolor="#e58139"] ;
513 -> 525 ;
526 [label="redWardsPlaced <= 19.5\ngini = 0.47\nsamples = 526\nvalue = [534, 326]\nclass = blueLose", fillcolor="#f5ceb2"] ;
174 -> 526 ;
527 [label="blueGoldDiff <= -868.0\ngini = 0.48\nsamples = 391\nvalue = [374, 262]\nclass = blueLose", fillcolor="#f7d9c4"] ;
526 -> 527 ;
528 [label="redTotalMinionsKilled <= 223.5\ngini = 0.33\nsamples = 206\nvalue = [267, 69]\nclass = blueLose", fillcolor="#eca26c"] ;
527 -> 528 ;
529 [label="blueWardsDestroyed <= 3.5\ngini = 0.17\nsamples = 44\nvalue = [67, 7]\nclass = blueLose", fillcolor="#e88e4e"] ;
528 -> 529 ;
530 [label="blueTotalMinionsKilled <= 183.5\ngini = 0.06\nsamples = 32\nvalue = [58, 2]\nclass = blueLose", fillcolor="#e68540"] ;
529 -> 530 ;
531 [label="blueTotalJungleMinionsKilled <= 42.5\ngini = 0.5\nsamples = 2\nvalue = [1, 1]\nclass = blueLose", fillcolor="#ffffff"] ;
530 -> 531 ;
532 [label="gini = 0.0\nsamples = 1\nvalue = [0, 1]\nclass = blueWin", fillcolor="#399de5"] ;
531 -> 532 ;
533 [label="gini = 0.0\nsamples = 1\nvalue = [1, 0]\nclass = blueLose", fillcolor="#e58139"] ;
531 -> 533 ;
534 [label="blueTotalMinionsKilled <= 203.5\ngini = 0.03\nsamples = 30\nvalue = [57, 1]\nclass = blueLose", fillcolor="#e5833c"] ;
530 -> 534 ;
535 [label="gini = 0.0\nsamples = 24\nvalue = [48, 0]\nclass = blueLose", fillcolor="#e58139"] ;
534 -> 535 ;
536 [label="blueTotalMinionsKilled <= 205.0\ngini = 0.18\nsamples = 6\nvalue = [9, 1]\nclass = blueLose", fillcolor="#e88f4f"] ;
534 -> 536 ;
537 [label="blueGoldDiff <= -2504.0\ngini = 0.5\nsamples = 2\nvalue = [1, 1]\nclass = blueLose", fillcolor="#ffffff"] ;
536 -> 537 ;
538 [label="gini = 0.0\nsamples = 1\nvalue = [0, 1]\nclass = blueWin", fillcolor="#399de5"] ;
537 -> 538 ;
539 [label="gini = 0.0\nsamples = 1\nvalue = [1, 0]\nclass = blueLose", fillcolor="#e58139"] ;
537 -> 539 ;
540 [label="gini = 0.0\nsamples = 4\nvalue = [8, 0]\nclass = blueLose", fillcolor="#e58139"] ;
536 -> 540 ;
541 [label="redTotalMinionsKilled <= 217.5\ngini = 0.46\nsamples = 12\nvalue = [9, 5]\nclass = blueLose", fillcolor="#f3c7a7"] ;
529 -> 541 ;
542 [label="redWardsPlaced <= 18.0\ngini = 0.44\nsamples = 4\nvalue = [2, 4]\nclass = blueWin", fillcolor="#9ccef2"] ;
541 -> 542 ;
543 [label="blueGoldDiff <= -1287.5\ngini = 0.32\nsamples = 3\nvalue = [1, 4]\nclass = blueWin", fillcolor="#6ab6ec"] ;
542 -> 543 ;
544 [label="gini = 0.0\nsamples = 2\nvalue = [0, 4]\nclass = blueWin", fillcolor="#399de5"] ;
543 -> 544 ;
545 [label="gini = 0.0\nsamples = 1\nvalue = [1, 0]\nclass = blueLose", fillcolor="#e58139"] ;
543 -> 545 ;
546 [label="gini = 0.0\nsamples = 1\nvalue = [1, 0]\nclass = blueLose", fillcolor="#e58139"] ;
542 -> 546 ;
547 [label="redWardsDestroyed <= 0.5\ngini = 0.22\nsamples = 8\nvalue = [7, 1]\nclass = blueLose", fillcolor="#e99355"] ;
541 -> 547 ;
548 [label="redTotalJungleMinionsKilled <= 45.5\ngini = 0.5\nsamples = 2\nvalue = [1, 1]\nclass = blueLose", fillcolor="#ffffff"] ;
547 -> 548 ;
549 [label="gini = 0.0\nsamples = 1\nvalue = [1, 0]\nclass = blueLose", fillcolor="#e58139"] ;
548 -> 549 ;
550 [label="gini = 0.0\nsamples = 1\nvalue = [0, 1]\nclass = blueWin", fillcolor="#399de5"] ;
548 -> 550 ;
551 [label="gini = 0.0\nsamples = 6\nvalue = [6, 0]\nclass = blueLose", fillcolor="#e58139"] ;
547 -> 551 ;
552 [label="blueWardsPlaced <= 16.5\ngini = 0.36\nsamples = 162\nvalue = [200, 62]\nclass = blueLose", fillcolor="#eda876"] ;
528 -> 552 ;
553 [label="blueWardsDestroyed <= 1.5\ngini = 0.27\nsamples = 82\nvalue = [112, 21]\nclass = blueLose", fillcolor="#ea995e"] ;
552 -> 553 ;
554 [label="blueGoldDiff <= -3202.0\ngini = 0.43\nsamples = 29\nvalue = [31, 14]\nclass = blueLose", fillcolor="#f1ba92"] ;
553 -> 554 ;
555 [label="blueWardsPlaced <= 14.5\ngini = 0.22\nsamples = 14\nvalue = [21, 3]\nclass = blueLose", fillcolor="#e99355"] ;
554 -> 555 ;
556 [label="gini = 0.0\nsamples = 8\nvalue = [17, 0]\nclass = blueLose", fillcolor="#e58139"] ;
555 -> 556 ;
557 [label="blueGoldDiff <= -4033.0\ngini = 0.49\nsamples = 6\nvalue = [4, 3]\nclass = blueLose", fillcolor="#f8e0ce"] ;
555 -> 557 ;
558 [label="gini = 0.0\nsamples = 3\nvalue = [3, 0]\nclass = blueLose", fillcolor="#e58139"] ;
557 -> 558 ;
559 [label="redWardsPlaced <= 16.0\ngini = 0.38\nsamples = 3\nvalue = [1, 3]\nclass = blueWin", fillcolor="#7bbeee"] ;
557 -> 559 ;
560 [label="gini = 0.0\nsamples = 2\nvalue = [0, 3]\nclass = blueWin", fillcolor="#399de5"] ;
559 -> 560 ;
561 [label="gini = 0.0\nsamples = 1\nvalue = [1, 0]\nclass = blueLose", fillcolor="#e58139"] ;
559 -> 561 ;
562 [label="blueGoldDiff <= -2127.5\ngini = 0.5\nsamples = 15\nvalue = [10, 11]\nclass = blueWin", fillcolor="#edf6fd"] ;
554 -> 562 ;
563 [label="redWardsPlaced <= 16.5\ngini = 0.35\nsamples = 7\nvalue = [2, 7]\nclass = blueWin", fillcolor="#72b9ec"] ;
562 -> 563 ;
564 [label="redTotalJungleMinionsKilled <= 37.5\ngini = 0.24\nsamples = 5\nvalue = [1, 6]\nclass = blueWin", fillcolor="#5aade9"] ;
563 -> 564 ;
565 [label="gini = 0.0\nsamples = 1\nvalue = [1, 0]\nclass = blueLose", fillcolor="#e58139"] ;
564 -> 565 ;
566 [label="gini = 0.0\nsamples = 4\nvalue = [0, 6]\nclass = blueWin", fillcolor="#399de5"] ;
564 -> 566 ;
567 [label="blueTotalMinionsKilled <= 199.5\ngini = 0.5\nsamples = 2\nvalue = [1, 1]\nclass = blueLose", fillcolor="#ffffff"] ;
563 -> 567 ;
568 [label="gini = 0.0\nsamples = 1\nvalue = [1, 0]\nclass = blueLose", fillcolor="#e58139"] ;
567 -> 568 ;
569 [label="gini = 0.0\nsamples = 1\nvalue = [0, 1]\nclass = blueWin", fillcolor="#399de5"] ;
567 -> 569 ;
570 [label="blueTotalMinionsKilled <= 193.0\ngini = 0.44\nsamples = 8\nvalue = [8, 4]\nclass = blueLose", fillcolor="#f2c09c"] ;
562 -> 570 ;
571 [label="gini = 0.0\nsamples = 3\nvalue = [4, 0]\nclass = blueLose", fillcolor="#e58139"] ;
570 -> 571 ;
572 [label="redTotalMinionsKilled <= 244.5\ngini = 0.5\nsamples = 5\nvalue = [4, 4]\nclass = blueLose", fillcolor="#ffffff"] ;
570 -> 572 ;
573 [label="redTotalMinionsKilled <= 230.5\ngini = 0.32\nsamples = 4\nvalue = [4, 1]\nclass = blueLose", fillcolor="#eca06a"] ;
572 -> 573 ;
574 [label="gini = 0.0\nsamples = 1\nvalue = [0, 1]\nclass = blueWin", fillcolor="#399de5"] ;
573 -> 574 ;
575 [label="gini = 0.0\nsamples = 3\nvalue = [4, 0]\nclass = blueLose", fillcolor="#e58139"] ;
573 -> 575 ;
576 [label="gini = 0.0\nsamples = 1\nvalue = [0, 3]\nclass = blueWin", fillcolor="#399de5"] ;
572 -> 576 ;
577 [label="blueTotalMinionsKilled <= 200.5\ngini = 0.15\nsamples = 53\nvalue = [81, 7]\nclass = blueLose", fillcolor="#e78c4a"] ;
553 -> 577 ;
578 [label="gini = 0.0\nsamples = 27\nvalue = [51, 0]\nclass = blueLose", fillcolor="#e58139"] ;
577 -> 578 ;
579 [label="blueTotalMinionsKilled <= 203.5\ngini = 0.31\nsamples = 26\nvalue = [30, 7]\nclass = blueLose", fillcolor="#eb9e67"] ;
577 -> 579 ;
580 [label="redWardsPlaced <= 17.5\ngini = 0.49\nsamples = 6\nvalue = [4, 5]\nclass = blueWin", fillcolor="#d7ebfa"] ;
579 -> 580 ;
581 [label="redTotalJungleMinionsKilled <= 43.0\ngini = 0.32\nsamples = 4\nvalue = [4, 1]\nclass = blueLose", fillcolor="#eca06a"] ;
580 -> 581 ;
582 [label="gini = 0.0\nsamples = 1\nvalue = [0, 1]\nclass = blueWin", fillcolor="#399de5"] ;
581 -> 582 ;
583 [label="gini = 0.0\nsamples = 3\nvalue = [4, 0]\nclass = blueLose", fillcolor="#e58139"] ;
581 -> 583 ;
584 [label="gini = 0.0\nsamples = 2\nvalue = [0, 4]\nclass = blueWin", fillcolor="#399de5"] ;
580 -> 584 ;
585 [label="redTotalMinionsKilled <= 251.0\ngini = 0.13\nsamples = 20\nvalue = [26, 2]\nclass = blueLose", fillcolor="#e78b48"] ;
579 -> 585 ;
586 [label="blueWardsPlaced <= 15.5\ngini = 0.08\nsamples = 17\nvalue = [24, 1]\nclass = blueLose", fillcolor="#e68641"] ;
585 -> 586 ;
587 [label="gini = 0.0\nsamples = 13\nvalue = [21, 0]\nclass = blueLose", fillcolor="#e58139"] ;
586 -> 587 ;
588 [label="redWardsPlaced <= 17.5\ngini = 0.38\nsamples = 4\nvalue = [3, 1]\nclass = blueLose", fillcolor="#eeab7b"] ;
586 -> 588 ;
589 [label="gini = 0.0\nsamples = 3\nvalue = [3, 0]\nclass = blueLose", fillcolor="#e58139"] ;
588 -> 589 ;
590 [label="gini = 0.0\nsamples = 1\nvalue = [0, 1]\nclass = blueWin", fillcolor="#399de5"] ;
588 -> 590 ;
591 [label="blueWardsDestroyed <= 3.5\ngini = 0.44\nsamples = 3\nvalue = [2, 1]\nclass = blueLose", fillcolor="#f2c09c"] ;
585 -> 591 ;
592 [label="gini = 0.0\nsamples = 2\nvalue = [2, 0]\nclass = blueLose", fillcolor="#e58139"] ;
591 -> 592 ;
593 [label="gini = 0.0\nsamples = 1\nvalue = [0, 1]\nclass = blueWin", fillcolor="#399de5"] ;
591 -> 593 ;
594 [label="redTotalMinionsKilled <= 224.5\ngini = 0.43\nsamples = 80\nvalue = [88, 41]\nclass = blueLose", fillcolor="#f1bc95"] ;
552 -> 594 ;
595 [label="gini = 0.0\nsamples = 4\nvalue = [9, 0]\nclass = blueLose", fillcolor="#e58139"] ;
594 -> 595 ;
596 [label="blueGoldDiff <= -2387.0\ngini = 0.45\nsamples = 76\nvalue = [79, 41]\nclass = blueLose", fillcolor="#f2c2a0"] ;
594 -> 596 ;
597 [label="blueTotalJungleMinionsKilled <= 48.5\ngini = 0.28\nsamples = 46\nvalue = [58, 12]\nclass = blueLose", fillcolor="#ea9b62"] ;
596 -> 597 ;
598 [label="redWardsDestroyed <= 6.5\ngini = 0.38\nsamples = 29\nvalue = [32, 11]\nclass = blueLose", fillcolor="#eeac7d"] ;
597 -> 598 ;
599 [label="redTotalJungleMinionsKilled <= 46.5\ngini = 0.33\nsamples = 27\nvalue = [31, 8]\nclass = blueLose", fillcolor="#eca26c"] ;
598 -> 599 ;
600 [label="blueWardsDestroyed <= 0.5\ngini = 0.08\nsamples = 16\nvalue = [24, 1]\nclass = blueLose", fillcolor="#e68641"] ;
599 -> 600 ;
601 [label="redTotalJungleMinionsKilled <= 36.0\ngini = 0.44\nsamples = 3\nvalue = [2, 1]\nclass = blueLose", fillcolor="#f2c09c"] ;
600 -> 601 ;
602 [label="gini = 0.0\nsamples = 1\nvalue = [0, 1]\nclass = blueWin", fillcolor="#399de5"] ;
601 -> 602 ;
603 [label="gini = 0.0\nsamples = 2\nvalue = [2, 0]\nclass = blueLose", fillcolor="#e58139"] ;
601 -> 603 ;
604 [label="gini = 0.0\nsamples = 13\nvalue = [22, 0]\nclass = blueLose", fillcolor="#e58139"] ;
600 -> 604 ;
605 [label="redWardsPlaced <= 16.5\ngini = 0.5\nsamples = 11\nvalue = [7, 7]\nclass = blueLose", fillcolor="#ffffff"] ;
599 -> 605 ;
606 [label="blueGoldDiff <= -3395.0\ngini = 0.41\nsamples = 5\nvalue = [2, 5]\nclass = blueWin", fillcolor="#88c4ef"] ;
605 -> 606 ;
607 [label="gini = 0.0\nsamples = 3\nvalue = [0, 5]\nclass = blueWin", fillcolor="#399de5"] ;
606 -> 607 ;
608 [label="gini = 0.0\nsamples = 2\nvalue = [2, 0]\nclass = blueLose", fillcolor="#e58139"] ;
606 -> 608 ;
609 [label="blueTotalJungleMinionsKilled <= 39.5\ngini = 0.41\nsamples = 6\nvalue = [5, 2]\nclass = blueLose", fillcolor="#efb388"] ;
605 -> 609 ;
610 [label="gini = 0.0\nsamples = 1\nvalue = [0, 1]\nclass = blueWin", fillcolor="#399de5"] ;
609 -> 610 ;
611 [label="blueWardsDestroyed <= 2.5\ngini = 0.28\nsamples = 5\nvalue = [5, 1]\nclass = blueLose", fillcolor="#ea9a61"] ;
609 -> 611 ;
612 [label="gini = 0.0\nsamples = 1\nvalue = [0, 1]\nclass = blueWin", fillcolor="#399de5"] ;
611 -> 612 ;
613 [label="gini = 0.0\nsamples = 4\nvalue = [5, 0]\nclass = blueLose", fillcolor="#e58139"] ;
611 -> 613 ;
614 [label="redWardsPlaced <= 17.0\ngini = 0.38\nsamples = 2\nvalue = [1, 3]\nclass = blueWin", fillcolor="#7bbeee"] ;
598 -> 614 ;
615 [label="gini = 0.0\nsamples = 1\nvalue = [0, 3]\nclass = blueWin", fillcolor="#399de5"] ;
614 -> 615 ;
616 [label="gini = 0.0\nsamples = 1\nvalue = [1, 0]\nclass = blueLose", fillcolor="#e58139"] ;
614 -> 616 ;
617 [label="blueTotalMinionsKilled <= 186.5\ngini = 0.07\nsamples = 17\nvalue = [26, 1]\nclass = blueLose", fillcolor="#e68641"] ;
597 -> 617 ;
618 [label="redTotalJungleMinionsKilled <= 49.0\ngini = 0.28\nsamples = 4\nvalue = [5, 1]\nclass = blueLose", fillcolor="#ea9a61"] ;
617 -> 618 ;
619 [label="gini = 0.0\nsamples = 3\nvalue = [5, 0]\nclass = blueLose", fillcolor="#e58139"] ;
618 -> 619 ;
620 [label="gini = 0.0\nsamples = 1\nvalue = [0, 1]\nclass = blueWin", fillcolor="#399de5"] ;
618 -> 620 ;
621 [label="gini = 0.0\nsamples = 13\nvalue = [21, 0]\nclass = blueLose", fillcolor="#e58139"] ;
617 -> 621 ;
622 [label="blueGoldDiff <= -2000.5\ngini = 0.49\nsamples = 30\nvalue = [21, 29]\nclass = blueWin", fillcolor="#c8e4f8"] ;
596 -> 622 ;
623 [label="blueWardsPlaced <= 21.5\ngini = 0.26\nsamples = 12\nvalue = [3, 17]\nclass = blueWin", fillcolor="#5caeea"] ;
622 -> 623 ;
624 [label="blueTotalJungleMinionsKilled <= 60.5\ngini = 0.11\nsamples = 9\nvalue = [1, 16]\nclass = blueWin", fillcolor="#45a3e7"] ;
623 -> 624 ;
625 [label="gini = 0.0\nsamples = 6\nvalue = [0, 14]\nclass = blueWin", fillcolor="#399de5"] ;
624 -> 625 ;
626 [label="blueGoldDiff <= -2086.5\ngini = 0.44\nsamples = 3\nvalue = [1, 2]\nclass = blueWin", fillcolor="#9ccef2"] ;
624 -> 626 ;
627 [label="gini = 0.0\nsamples = 1\nvalue = [1, 0]\nclass = blueLose", fillcolor="#e58139"] ;
626 -> 627 ;
628 [label="gini = 0.0\nsamples = 2\nvalue = [0, 2]\nclass = blueWin", fillcolor="#399de5"] ;
626 -> 628 ;
629 [label="blueWardsPlaced <= 51.0\ngini = 0.44\nsamples = 3\nvalue = [2, 1]\nclass = blueLose", fillcolor="#f2c09c"] ;
623 -> 629 ;
630 [label="gini = 0.0\nsamples = 2\nvalue = [2, 0]\nclass = blueLose", fillcolor="#e58139"] ;
629 -> 630 ;
631 [label="gini = 0.0\nsamples = 1\nvalue = [0, 1]\nclass = blueWin", fillcolor="#399de5"] ;
629 -> 631 ;
632 [label="redWardsDestroyed <= 1.5\ngini = 0.48\nsamples = 18\nvalue = [18, 12]\nclass = blueLose", fillcolor="#f6d5bd"] ;
622 -> 632 ;
633 [label="gini = 0.0\nsamples = 3\nvalue = [0, 5]\nclass = blueWin", fillcolor="#399de5"] ;
632 -> 633 ;
634 [label="blueWardsPlaced <= 97.5\ngini = 0.4\nsamples = 15\nvalue = [18, 7]\nclass = blueLose", fillcolor="#efb286"] ;
632 -> 634 ;
635 [label="blueTotalJungleMinionsKilled <= 57.0\ngini = 0.34\nsamples = 14\nvalue = [18, 5]\nclass = blueLose", fillcolor="#eca470"] ;
634 -> 635 ;
636 [label="blueGoldDiff <= -932.5\ngini = 0.18\nsamples = 12\nvalue = [18, 2]\nclass = blueLose", fillcolor="#e88f4f"] ;
635 -> 636 ;
637 [label="blueWardsDestroyed <= 0.5\ngini = 0.1\nsamples = 11\nvalue = [18, 1]\nclass = blueLose", fillcolor="#e68844"] ;
636 -> 637 ;
638 [label="redWardsDestroyed <= 4.5\ngini = 0.32\nsamples = 3\nvalue = [4, 1]\nclass = blueLose", fillcolor="#eca06a"] ;
637 -> 638 ;
639 [label="gini = 0.0\nsamples = 2\nvalue = [4, 0]\nclass = blueLose", fillcolor="#e58139"] ;
638 -> 639 ;
640 [label="gini = 0.0\nsamples = 1\nvalue = [0, 1]\nclass = blueWin", fillcolor="#399de5"] ;
638 -> 640 ;
641 [label="gini = 0.0\nsamples = 8\nvalue = [14, 0]\nclass = blueLose", fillcolor="#e58139"] ;
637 -> 641 ;
642 [label="gini = 0.0\nsamples = 1\nvalue = [0, 1]\nclass = blueWin", fillcolor="#399de5"] ;
636 -> 642 ;
643 [label="gini = 0.0\nsamples = 2\nvalue = [0, 3]\nclass = blueWin", fillcolor="#399de5"] ;
635 -> 643 ;
644 [label="gini = 0.0\nsamples = 1\nvalue = [0, 2]\nclass = blueWin", fillcolor="#399de5"] ;
634 -> 644 ;
645 [label="blueGoldDiff <= 1185.5\ngini = 0.46\nsamples = 185\nvalue = [107, 193]\nclass = blueWin", fillcolor="#a7d3f3"] ;
527 -> 645 ;
646 [label="redWardsPlaced <= 11.5\ngini = 0.5\nsamples = 127\nvalue = [99, 107]\nclass = blueWin", fillcolor="#f0f8fd"] ;
645 -> 646 ;
647 [label="blueWardsPlaced <= 12.5\ngini = 0.15\nsamples = 7\nvalue = [11, 1]\nclass = blueLose", fillcolor="#e78c4b"] ;
646 -> 647 ;
648 [label="gini = 0.0\nsamples = 1\nvalue = [0, 1]\nclass = blueWin", fillcolor="#399de5"] ;
647 -> 648 ;
649 [label="gini = 0.0\nsamples = 6\nvalue = [11, 0]\nclass = blueLose", fillcolor="#e58139"] ;
647 -> 649 ;
650 [label="blueTotalJungleMinionsKilled <= 46.5\ngini = 0.5\nsamples = 120\nvalue = [88, 106]\nclass = blueWin", fillcolor="#ddeefb"] ;
646 -> 650 ;
651 [label="blueTotalJungleMinionsKilled <= 36.5\ngini = 0.46\nsamples = 42\nvalue = [42, 23]\nclass = blueLose", fillcolor="#f3c6a5"] ;
650 -> 651 ;
652 [label="blueTotalMinionsKilled <= 188.0\ngini = 0.2\nsamples = 5\nvalue = [1, 8]\nclass = blueWin", fillcolor="#52a9e8"] ;
651 -> 652 ;
653 [label="gini = 0.0\nsamples = 1\nvalue = [1, 0]\nclass = blueLose", fillcolor="#e58139"] ;
652 -> 653 ;
654 [label="gini = 0.0\nsamples = 4\nvalue = [0, 8]\nclass = blueWin", fillcolor="#399de5"] ;
652 -> 654 ;
655 [label="blueWardsPlaced <= 17.5\ngini = 0.39\nsamples = 37\nvalue = [41, 15]\nclass = blueLose", fillcolor="#efaf81"] ;
651 -> 655 ;
656 [label="blueWardsPlaced <= 13.5\ngini = 0.09\nsamples = 14\nvalue = [21, 1]\nclass = blueLose", fillcolor="#e68742"] ;
655 -> 656 ;
657 [label="blueTotalMinionsKilled <= 199.5\ngini = 0.44\nsamples = 2\nvalue = [2, 1]\nclass = blueLose", fillcolor="#f2c09c"] ;
656 -> 657 ;
658 [label="gini = 0.0\nsamples = 1\nvalue = [2, 0]\nclass = blueLose", fillcolor="#e58139"] ;
657 -> 658 ;
659 [label="gini = 0.0\nsamples = 1\nvalue = [0, 1]\nclass = blueWin", fillcolor="#399de5"] ;
657 -> 659 ;
660 [label="gini = 0.0\nsamples = 12\nvalue = [19, 0]\nclass = blueLose", fillcolor="#e58139"] ;
656 -> 660 ;
661 [label="blueWardsDestroyed <= 4.5\ngini = 0.48\nsamples = 23\nvalue = [20, 14]\nclass = blueLose", fillcolor="#f7d9c4"] ;
655 -> 661 ;
662 [label="blueWardsPlaced <= 78.5\ngini = 0.44\nsamples = 20\nvalue = [19, 9]\nclass = blueLose", fillcolor="#f1bd97"] ;
661 -> 662 ;
663 [label="blueGoldDiff <= -104.0\ngini = 0.42\nsamples = 19\nvalue = [19, 8]\nclass = blueLose", fillcolor="#f0b68c"] ;
662 -> 663 ;
664 [label="redTotalMinionsKilled <= 229.5\ngini = 0.49\nsamples = 7\nvalue = [4, 5]\nclass = blueWin", fillcolor="#d7ebfa"] ;
663 -> 664 ;
665 [label="gini = 0.0\nsamples = 3\nvalue = [0, 4]\nclass = blueWin", fillcolor="#399de5"] ;
664 -> 665 ;
666 [label="redWardsPlaced <= 16.0\ngini = 0.32\nsamples = 4\nvalue = [4, 1]\nclass = blueLose", fillcolor="#eca06a"] ;
664 -> 666 ;
667 [label="gini = 0.0\nsamples = 3\nvalue = [4, 0]\nclass = blueLose", fillcolor="#e58139"] ;
666 -> 667 ;
668 [label="gini = 0.0\nsamples = 1\nvalue = [0, 1]\nclass = blueWin", fillcolor="#399de5"] ;
666 -> 668 ;
669 [label="redTotalMinionsKilled <= 221.0\ngini = 0.28\nsamples = 12\nvalue = [15, 3]\nclass = blueLose", fillcolor="#ea9a61"] ;
663 -> 669 ;
670 [label="blueWardsPlaced <= 48.5\ngini = 0.44\nsamples = 3\nvalue = [1, 2]\nclass = blueWin", fillcolor="#9ccef2"] ;
669 -> 670 ;
671 [label="gini = 0.0\nsamples = 2\nvalue = [0, 2]\nclass = blueWin", fillcolor="#399de5"] ;
670 -> 671 ;
672 [label="gini = 0.0\nsamples = 1\nvalue = [1, 0]\nclass = blueLose", fillcolor="#e58139"] ;
670 -> 672 ;
673 [label="redWardsPlaced <= 18.0\ngini = 0.12\nsamples = 9\nvalue = [14, 1]\nclass = blueLose", fillcolor="#e78a47"] ;
669 -> 673 ;
674 [label="gini = 0.0\nsamples = 7\nvalue = [13, 0]\nclass = blueLose", fillcolor="#e58139"] ;
673 -> 674 ;
675 [label="blueWardsPlaced <= 19.0\ngini = 0.5\nsamples = 2\nvalue = [1, 1]\nclass = blueLose", fillcolor="#ffffff"] ;
673 -> 675 ;
676 [label="gini = 0.0\nsamples = 1\nvalue = [0, 1]\nclass = blueWin", fillcolor="#399de5"] ;
675 -> 676 ;
677 [label="gini = 0.0\nsamples = 1\nvalue = [1, 0]\nclass = blueLose", fillcolor="#e58139"] ;
675 -> 677 ;
678 [label="gini = 0.0\nsamples = 1\nvalue = [0, 1]\nclass = blueWin", fillcolor="#399de5"] ;
662 -> 678 ;
679 [label="blueTotalJungleMinionsKilled <= 44.5\ngini = 0.28\nsamples = 3\nvalue = [1, 5]\nclass = blueWin", fillcolor="#61b1ea"] ;
661 -> 679 ;
680 [label="gini = 0.0\nsamples = 2\nvalue = [0, 5]\nclass = blueWin", fillcolor="#399de5"] ;
679 -> 680 ;
681 [label="gini = 0.0\nsamples = 1\nvalue = [1, 0]\nclass = blueLose", fillcolor="#e58139"] ;
679 -> 681 ;
682 [label="blueWardsPlaced <= 35.0\ngini = 0.46\nsamples = 78\nvalue = [46, 83]\nclass = blueWin", fillcolor="#a7d3f3"] ;
650 -> 682 ;
683 [label="blueWardsPlaced <= 16.5\ngini = 0.48\nsamples = 65\nvalue = [43, 63]\nclass = blueWin", fillcolor="#c0e0f7"] ;
682 -> 683 ;
684 [label="redWardsDestroyed <= 3.5\ngini = 0.43\nsamples = 40\nvalue = [21, 47]\nclass = blueWin", fillcolor="#91c9f1"] ;
683 -> 684 ;
685 [label="blueWardsDestroyed <= 5.5\ngini = 0.48\nsamples = 33\nvalue = [21, 31]\nclass = blueWin", fillcolor="#bfdff7"] ;
684 -> 685 ;
686 [label="blueTotalMinionsKilled <= 214.5\ngini = 0.5\nsamples = 30\nvalue = [21, 23]\nclass = blueWin", fillcolor="#eef6fd"] ;
685 -> 686 ;
687 [label="blueTotalMinionsKilled <= 212.0\ngini = 0.49\nsamples = 28\nvalue = [17, 23]\nclass = blueWin", fillcolor="#cbe5f8"] ;
686 -> 687 ;
688 [label="blueTotalMinionsKilled <= 206.5\ngini = 0.5\nsamples = 20\nvalue = [16, 15]\nclass = blueLose", fillcolor="#fdf7f3"] ;
687 -> 688 ;
689 [label="blueTotalJungleMinionsKilled <= 58.5\ngini = 0.49\nsamples = 17\nvalue = [12, 15]\nclass = blueWin", fillcolor="#d7ebfa"] ;
688 -> 689 ;
690 [label="redTotalMinionsKilled <= 245.5\ngini = 0.33\nsamples = 12\nvalue = [4, 15]\nclass = blueWin", fillcolor="#6eb7ec"] ;
689 -> 690 ;
691 [label="blueWardsDestroyed <= 2.5\ngini = 0.28\nsamples = 11\nvalue = [3, 15]\nclass = blueWin", fillcolor="#61b1ea"] ;
690 -> 691 ;
692 [label="blueWardsPlaced <= 12.0\ngini = 0.4\nsamples = 8\nvalue = [3, 8]\nclass = blueWin", fillcolor="#83c2ef"] ;
691 -> 692 ;
693 [label="gini = 0.0\nsamples = 2\nvalue = [2, 0]\nclass = blueLose", fillcolor="#e58139"] ;
692 -> 693 ;
694 [label="blueGoldDiff <= -271.0\ngini = 0.2\nsamples = 6\nvalue = [1, 8]\nclass = blueWin", fillcolor="#52a9e8"] ;
692 -> 694 ;
695 [label="gini = 0.0\nsamples = 3\nvalue = [0, 5]\nclass = blueWin", fillcolor="#399de5"] ;
694 -> 695 ;
696 [label="redWardsPlaced <= 15.5\ngini = 0.38\nsamples = 3\nvalue = [1, 3]\nclass = blueWin", fillcolor="#7bbeee"] ;
694 -> 696 ;
697 [label="gini = 0.0\nsamples = 1\nvalue = [1, 0]\nclass = blueLose", fillcolor="#e58139"] ;
696 -> 697 ;
698 [label="gini = 0.0\nsamples = 2\nvalue = [0, 3]\nclass = blueWin", fillcolor="#399de5"] ;
696 -> 698 ;
699 [label="gini = 0.0\nsamples = 3\nvalue = [0, 7]\nclass = blueWin", fillcolor="#399de5"] ;
691 -> 699 ;
700 [label="gini = 0.0\nsamples = 1\nvalue = [1, 0]\nclass = blueLose", fillcolor="#e58139"] ;
690 -> 700 ;
701 [label="gini = 0.0\nsamples = 5\nvalue = [8, 0]\nclass = blueLose", fillcolor="#e58139"] ;
689 -> 701 ;
702 [label="gini = 0.0\nsamples = 3\nvalue = [4, 0]\nclass = blueLose", fillcolor="#e58139"] ;
688 -> 702 ;
703 [label="redWardsDestroyed <= 2.5\ngini = 0.2\nsamples = 8\nvalue = [1, 8]\nclass = blueWin", fillcolor="#52a9e8"] ;
687 -> 703 ;
704 [label="gini = 0.0\nsamples = 6\nvalue = [0, 7]\nclass = blueWin", fillcolor="#399de5"] ;
703 -> 704 ;
705 [label="redTotalJungleMinionsKilled <= 44.5\ngini = 0.5\nsamples = 2\nvalue = [1, 1]\nclass = blueLose", fillcolor="#ffffff"] ;
703 -> 705 ;
706 [label="gini = 0.0\nsamples = 1\nvalue = [1, 0]\nclass = blueLose", fillcolor="#e58139"] ;
705 -> 706 ;
707 [label="gini = 0.0\nsamples = 1\nvalue = [0, 1]\nclass = blueWin", fillcolor="#399de5"] ;
705 -> 707 ;
708 [label="gini = 0.0\nsamples = 2\nvalue = [4, 0]\nclass = blueLose", fillcolor="#e58139"] ;
686 -> 708 ;
709 [label="gini = 0.0\nsamples = 3\nvalue = [0, 8]\nclass = blueWin", fillcolor="#399de5"] ;
685 -> 709 ;
710 [label="gini = 0.0\nsamples = 7\nvalue = [0, 16]\nclass = blueWin", fillcolor="#399de5"] ;
684 -> 710 ;
711 [label="blueGoldDiff <= 936.5\ngini = 0.49\nsamples = 25\nvalue = [22, 16]\nclass = blueLose", fillcolor="#f8ddc9"] ;
683 -> 711 ;
712 [label="redTotalMinionsKilled <= 242.0\ngini = 0.41\nsamples = 22\nvalue = [22, 9]\nclass = blueLose", fillcolor="#f0b58a"] ;
711 -> 712 ;
713 [label="redWardsPlaced <= 14.5\ngini = 0.37\nsamples = 21\nvalue = [22, 7]\nclass = blueLose", fillcolor="#eda978"] ;
712 -> 713 ;
714 [label="gini = 0.0\nsamples = 4\nvalue = [5, 0]\nclass = blueLose", fillcolor="#e58139"] ;
713 -> 714 ;
715 [label="redWardsPlaced <= 15.5\ngini = 0.41\nsamples = 17\nvalue = [17, 7]\nclass = blueLose", fillcolor="#f0b58b"] ;
713 -> 715 ;
716 [label="redTotalMinionsKilled <= 222.5\ngini = 0.48\nsamples = 2\nvalue = [2, 3]\nclass = blueWin", fillcolor="#bddef6"] ;
715 -> 716 ;
717 [label="gini = 0.0\nsamples = 1\nvalue = [2, 0]\nclass = blueLose", fillcolor="#e58139"] ;
716 -> 717 ;
718 [label="gini = 0.0\nsamples = 1\nvalue = [0, 3]\nclass = blueWin", fillcolor="#399de5"] ;
716 -> 718 ;
719 [label="redWardsDestroyed <= 2.5\ngini = 0.33\nsamples = 15\nvalue = [15, 4]\nclass = blueLose", fillcolor="#eca36e"] ;
715 -> 719 ;
720 [label="blueTotalJungleMinionsKilled <= 55.0\ngini = 0.5\nsamples = 8\nvalue = [4, 4]\nclass = blueLose", fillcolor="#ffffff"] ;
719 -> 720 ;
721 [label="blueTotalMinionsKilled <= 206.5\ngini = 0.44\nsamples = 6\nvalue = [2, 4]\nclass = blueWin", fillcolor="#9ccef2"] ;
720 -> 721 ;
722 [label="redWardsPlaced <= 17.5\ngini = 0.44\nsamples = 3\nvalue = [2, 1]\nclass = blueLose", fillcolor="#f2c09c"] ;
721 -> 722 ;
723 [label="gini = 0.0\nsamples = 1\nvalue = [0, 1]\nclass = blueWin", fillcolor="#399de5"] ;
722 -> 723 ;
724 [label="gini = 0.0\nsamples = 2\nvalue = [2, 0]\nclass = blueLose", fillcolor="#e58139"] ;
722 -> 724 ;
725 [label="gini = 0.0\nsamples = 3\nvalue = [0, 3]\nclass = blueWin", fillcolor="#399de5"] ;
721 -> 725 ;
726 [label="gini = 0.0\nsamples = 2\nvalue = [2, 0]\nclass = blueLose", fillcolor="#e58139"] ;
720 -> 726 ;
727 [label="gini = 0.0\nsamples = 7\nvalue = [11, 0]\nclass = blueLose", fillcolor="#e58139"] ;
719 -> 727 ;
728 [label="gini = 0.0\nsamples = 1\nvalue = [0, 2]\nclass = blueWin", fillcolor="#399de5"] ;
712 -> 728 ;
729 [label="gini = 0.0\nsamples = 3\nvalue = [0, 7]\nclass = blueWin", fillcolor="#399de5"] ;
711 -> 729 ;
730 [label="blueTotalJungleMinionsKilled <= 72.0\ngini = 0.23\nsamples = 13\nvalue = [3, 20]\nclass = blueWin", fillcolor="#57ace9"] ;
682 -> 730 ;
731 [label="redTotalMinionsKilled <= 220.0\ngini = 0.09\nsamples = 12\nvalue = [1, 20]\nclass = blueWin", fillcolor="#43a2e6"] ;
730 -> 731 ;
732 [label="gini = 0.0\nsamples = 1\nvalue = [1, 0]\nclass = blueLose", fillcolor="#e58139"] ;
731 -> 732 ;
733 [label="gini = 0.0\nsamples = 11\nvalue = [0, 20]\nclass = blueWin", fillcolor="#399de5"] ;
731 -> 733 ;
734 [label="gini = 0.0\nsamples = 1\nvalue = [2, 0]\nclass = blueLose", fillcolor="#e58139"] ;
730 -> 734 ;
735 [label="blueGoldDiff <= 2207.5\ngini = 0.16\nsamples = 58\nvalue = [8, 86]\nclass = blueWin", fillcolor="#4ba6e7"] ;
645 -> 735 ;
736 [label="blueTotalJungleMinionsKilled <= 53.5\ngini = 0.22\nsamples = 40\nvalue = [8, 54]\nclass = blueWin", fillcolor="#56ace9"] ;
735 -> 736 ;
737 [label="blueWardsPlaced <= 20.5\ngini = 0.38\nsamples = 21\nvalue = [8, 23]\nclass = blueWin", fillcolor="#7ebfee"] ;
736 -> 737 ;
738 [label="redWardsDestroyed <= 3.5\ngini = 0.23\nsamples = 16\nvalue = [3, 20]\nclass = blueWin", fillcolor="#57ace9"] ;
737 -> 738 ;
739 [label="redTotalJungleMinionsKilled <= 48.5\ngini = 0.32\nsamples = 12\nvalue = [3, 12]\nclass = blueWin", fillcolor="#6ab6ec"] ;
738 -> 739 ;
740 [label="redTotalJungleMinionsKilled <= 42.5\ngini = 0.15\nsamples = 9\nvalue = [1, 11]\nclass = blueWin", fillcolor="#4ba6e7"] ;
739 -> 740 ;
741 [label="redTotalMinionsKilled <= 225.5\ngini = 0.5\nsamples = 2\nvalue = [1, 1]\nclass = blueLose", fillcolor="#ffffff"] ;
740 -> 741 ;
742 [label="gini = 0.0\nsamples = 1\nvalue = [1, 0]\nclass = blueLose", fillcolor="#e58139"] ;
741 -> 742 ;
743 [label="gini = 0.0\nsamples = 1\nvalue = [0, 1]\nclass = blueWin", fillcolor="#399de5"] ;
741 -> 743 ;
744 [label="gini = 0.0\nsamples = 7\nvalue = [0, 10]\nclass = blueWin", fillcolor="#399de5"] ;
740 -> 744 ;
745 [label="blueTotalJungleMinionsKilled <= 41.0\ngini = 0.44\nsamples = 3\nvalue = [2, 1]\nclass = blueLose", fillcolor="#f2c09c"] ;
739 -> 745 ;
746 [label="gini = 0.0\nsamples = 1\nvalue = [0, 1]\nclass = blueWin", fillcolor="#399de5"] ;
745 -> 746 ;
747 [label="gini = 0.0\nsamples = 2\nvalue = [2, 0]\nclass = blueLose", fillcolor="#e58139"] ;
745 -> 747 ;
748 [label="gini = 0.0\nsamples = 4\nvalue = [0, 8]\nclass = blueWin", fillcolor="#399de5"] ;
738 -> 748 ;
749 [label="blueWardsPlaced <= 29.5\ngini = 0.47\nsamples = 5\nvalue = [5, 3]\nclass = blueLose", fillcolor="#f5cdb0"] ;
737 -> 749 ;
750 [label="gini = 0.0\nsamples = 2\nvalue = [5, 0]\nclass = blueLose", fillcolor="#e58139"] ;
749 -> 750 ;
751 [label="gini = 0.0\nsamples = 3\nvalue = [0, 3]\nclass = blueWin", fillcolor="#399de5"] ;
749 -> 751 ;
752 [label="gini = 0.0\nsamples = 19\nvalue = [0, 31]\nclass = blueWin", fillcolor="#399de5"] ;
736 -> 752 ;
753 [label="gini = 0.0\nsamples = 18\nvalue = [0, 32]\nclass = blueWin", fillcolor="#399de5"] ;
735 -> 753 ;
754 [label="redWardsDestroyed <= 1.5\ngini = 0.41\nsamples = 135\nvalue = [160, 64]\nclass = blueLose", fillcolor="#efb388"] ;
526 -> 754 ;
755 [label="blueWardsDestroyed <= 0.5\ngini = 0.48\nsamples = 36\nvalue = [35, 23]\nclass = blueLose", fillcolor="#f6d4bb"] ;
754 -> 755 ;
756 [label="gini = 0.0\nsamples = 2\nvalue = [0, 5]\nclass = blueWin", fillcolor="#399de5"] ;
755 -> 756 ;
757 [label="redTotalJungleMinionsKilled <= 44.5\ngini = 0.45\nsamples = 34\nvalue = [35, 18]\nclass = blueLose", fillcolor="#f2c29f"] ;
755 -> 757 ;
758 [label="redTotalJungleMinionsKilled <= 35.5\ngini = 0.21\nsamples = 17\nvalue = [22, 3]\nclass = blueLose", fillcolor="#e99254"] ;
757 -> 758 ;
759 [label="redWardsDestroyed <= 0.5\ngini = 0.5\nsamples = 3\nvalue = [2, 2]\nclass = blueLose", fillcolor="#ffffff"] ;
758 -> 759 ;
760 [label="gini = 0.0\nsamples = 1\nvalue = [2, 0]\nclass = blueLose", fillcolor="#e58139"] ;
759 -> 760 ;
761 [label="gini = 0.0\nsamples = 2\nvalue = [0, 2]\nclass = blueWin", fillcolor="#399de5"] ;
759 -> 761 ;
762 [label="redWardsPlaced <= 29.0\ngini = 0.09\nsamples = 14\nvalue = [20, 1]\nclass = blueLose", fillcolor="#e68743"] ;
758 -> 762 ;
763 [label="blueWardsDestroyed <= 2.5\ngini = 0.38\nsamples = 4\nvalue = [3, 1]\nclass = blueLose", fillcolor="#eeab7b"] ;
762 -> 763 ;
764 [label="gini = 0.0\nsamples = 1\nvalue = [0, 1]\nclass = blueWin", fillcolor="#399de5"] ;
763 -> 764 ;
765 [label="gini = 0.0\nsamples = 3\nvalue = [3, 0]\nclass = blueLose", fillcolor="#e58139"] ;
763 -> 765 ;
766 [label="gini = 0.0\nsamples = 10\nvalue = [17, 0]\nclass = blueLose", fillcolor="#e58139"] ;
762 -> 766 ;
767 [label="blueGoldDiff <= -2022.0\ngini = 0.5\nsamples = 17\nvalue = [13, 15]\nclass = blueWin", fillcolor="#e5f2fc"] ;
757 -> 767 ;
768 [label="gini = 0.0\nsamples = 3\nvalue = [7, 0]\nclass = blueLose", fillcolor="#e58139"] ;
767 -> 768 ;
769 [label="blueWardsPlaced <= 14.5\ngini = 0.41\nsamples = 14\nvalue = [6, 15]\nclass = blueWin", fillcolor="#88c4ef"] ;
767 -> 769 ;
770 [label="gini = 0.0\nsamples = 6\nvalue = [0, 10]\nclass = blueWin", fillcolor="#399de5"] ;
769 -> 770 ;
771 [label="redWardsPlaced <= 55.5\ngini = 0.5\nsamples = 8\nvalue = [6, 5]\nclass = blueLose", fillcolor="#fbeade"] ;
769 -> 771 ;
772 [label="blueTotalJungleMinionsKilled <= 43.5\ngini = 0.47\nsamples = 6\nvalue = [3, 5]\nclass = blueWin", fillcolor="#b0d8f5"] ;
771 -> 772 ;
773 [label="gini = 0.0\nsamples = 1\nvalue = [2, 0]\nclass = blueLose", fillcolor="#e58139"] ;
772 -> 773 ;
774 [label="redTotalMinionsKilled <= 232.5\ngini = 0.28\nsamples = 5\nvalue = [1, 5]\nclass = blueWin", fillcolor="#61b1ea"] ;
772 -> 774 ;
775 [label="gini = 0.0\nsamples = 4\nvalue = [0, 5]\nclass = blueWin", fillcolor="#399de5"] ;
774 -> 775 ;
776 [label="gini = 0.0\nsamples = 1\nvalue = [1, 0]\nclass = blueLose", fillcolor="#e58139"] ;
774 -> 776 ;
777 [label="gini = 0.0\nsamples = 2\nvalue = [3, 0]\nclass = blueLose", fillcolor="#e58139"] ;
771 -> 777 ;
778 [label="redTotalJungleMinionsKilled <= 39.5\ngini = 0.37\nsamples = 99\nvalue = [125, 41]\nclass = blueLose", fillcolor="#eeaa7a"] ;
754 -> 778 ;
779 [label="blueGoldDiff <= 1709.5\ngini = 0.2\nsamples = 21\nvalue = [31, 4]\nclass = blueLose", fillcolor="#e89153"] ;
778 -> 779 ;
780 [label="blueWardsPlaced <= 18.5\ngini = 0.16\nsamples = 20\nvalue = [31, 3]\nclass = blueLose", fillcolor="#e88d4c"] ;
779 -> 780 ;
781 [label="redWardsDestroyed <= 2.5\ngini = 0.07\nsamples = 14\nvalue = [25, 1]\nclass = blueLose", fillcolor="#e68641"] ;
780 -> 781 ;
782 [label="redTotalMinionsKilled <= 220.0\ngini = 0.28\nsamples = 4\nvalue = [5, 1]\nclass = blueLose", fillcolor="#ea9a61"] ;
781 -> 782 ;
783 [label="gini = 0.0\nsamples = 1\nvalue = [0, 1]\nclass = blueWin", fillcolor="#399de5"] ;
782 -> 783 ;
784 [label="gini = 0.0\nsamples = 3\nvalue = [5, 0]\nclass = blueLose", fillcolor="#e58139"] ;
782 -> 784 ;
785 [label="gini = 0.0\nsamples = 10\nvalue = [20, 0]\nclass = blueLose", fillcolor="#e58139"] ;
781 -> 785 ;
786 [label="redWardsDestroyed <= 3.5\ngini = 0.38\nsamples = 6\nvalue = [6, 2]\nclass = blueLose", fillcolor="#eeab7b"] ;
780 -> 786 ;
787 [label="gini = 0.0\nsamples = 1\nvalue = [0, 1]\nclass = blueWin", fillcolor="#399de5"] ;
786 -> 787 ;
788 [label="blueTotalJungleMinionsKilled <= 41.0\ngini = 0.24\nsamples = 5\nvalue = [6, 1]\nclass = blueLose", fillcolor="#e9965a"] ;
786 -> 788 ;
789 [label="gini = 0.0\nsamples = 1\nvalue = [0, 1]\nclass = blueWin", fillcolor="#399de5"] ;
788 -> 789 ;
790 [label="gini = 0.0\nsamples = 4\nvalue = [6, 0]\nclass = blueLose", fillcolor="#e58139"] ;
788 -> 790 ;
791 [label="gini = 0.0\nsamples = 1\nvalue = [0, 1]\nclass = blueWin", fillcolor="#399de5"] ;
779 -> 791 ;
792 [label="blueTotalMinionsKilled <= 195.5\ngini = 0.41\nsamples = 78\nvalue = [94, 37]\nclass = blueLose", fillcolor="#efb387"] ;
778 -> 792 ;
793 [label="blueWardsPlaced <= 16.5\ngini = 0.5\nsamples = 27\nvalue = [23, 19]\nclass = blueLose", fillcolor="#fae9dd"] ;
792 -> 793 ;
794 [label="blueWardsDestroyed <= 0.5\ngini = 0.4\nsamples = 14\nvalue = [6, 16]\nclass = blueWin", fillcolor="#83c2ef"] ;
793 -> 794 ;
795 [label="gini = 0.0\nsamples = 1\nvalue = [2, 0]\nclass = blueLose", fillcolor="#e58139"] ;
794 -> 795 ;
796 [label="redTotalMinionsKilled <= 250.5\ngini = 0.32\nsamples = 13\nvalue = [4, 16]\nclass = blueWin", fillcolor="#6ab6ec"] ;
794 -> 796 ;
797 [label="blueGoldDiff <= -1537.5\ngini = 0.27\nsamples = 12\nvalue = [3, 16]\nclass = blueWin", fillcolor="#5eafea"] ;
796 -> 797 ;
798 [label="gini = 0.0\nsamples = 7\nvalue = [0, 11]\nclass = blueWin", fillcolor="#399de5"] ;
797 -> 798 ;
799 [label="redTotalJungleMinionsKilled <= 41.5\ngini = 0.47\nsamples = 5\nvalue = [3, 5]\nclass = blueWin", fillcolor="#b0d8f5"] ;
797 -> 799 ;
800 [label="gini = 0.0\nsamples = 2\nvalue = [3, 0]\nclass = blueLose", fillcolor="#e58139"] ;
799 -> 800 ;
801 [label="gini = 0.0\nsamples = 3\nvalue = [0, 5]\nclass = blueWin", fillcolor="#399de5"] ;
799 -> 801 ;
802 [label="gini = 0.0\nsamples = 1\nvalue = [1, 0]\nclass = blueLose", fillcolor="#e58139"] ;
796 -> 802 ;
803 [label="blueTotalMinionsKilled <= 187.5\ngini = 0.26\nsamples = 13\nvalue = [17, 3]\nclass = blueLose", fillcolor="#ea975c"] ;
793 -> 803 ;
804 [label="gini = 0.0\nsamples = 7\nvalue = [13, 0]\nclass = blueLose", fillcolor="#e58139"] ;
803 -> 804 ;
805 [label="blueTotalMinionsKilled <= 189.0\ngini = 0.49\nsamples = 6\nvalue = [4, 3]\nclass = blueLose", fillcolor="#f8e0ce"] ;
803 -> 805 ;
806 [label="gini = 0.0\nsamples = 1\nvalue = [0, 2]\nclass = blueWin", fillcolor="#399de5"] ;
805 -> 806 ;
807 [label="redWardsDestroyed <= 4.0\ngini = 0.32\nsamples = 5\nvalue = [4, 1]\nclass = blueLose", fillcolor="#eca06a"] ;
805 -> 807 ;
808 [label="gini = 0.0\nsamples = 3\nvalue = [3, 0]\nclass = blueLose", fillcolor="#e58139"] ;
807 -> 808 ;
809 [label="blueWardsDestroyed <= 3.5\ngini = 0.5\nsamples = 2\nvalue = [1, 1]\nclass = blueLose", fillcolor="#ffffff"] ;
807 -> 809 ;
810 [label="gini = 0.0\nsamples = 1\nvalue = [0, 1]\nclass = blueWin", fillcolor="#399de5"] ;
809 -> 810 ;
